Run,Score,w1,w2,w3,w4,w5,w6,w7,w8,w9,w10,w11,w12,w13,w14,w15,w16
1,199,0.32428,-0.71314,0.09895,0.55840,-0.46352,-0.84139,-0.91573,-0.41916,-0.77985,-0.76841,-0.05830,0.26140,-0.58297,0.12405,-0.82217,-0.36996
2,198,-0.64284,0.35601,0.27905,0.99930,-0.12037,-0.65635,-0.63487,0.02874,-1.16145,-0.51469,-1.10039,0.70615,-0.72196,-0.56164,0.78872,-0.54037
3,199,-0.94820,-0.94092,-0.20303,0.07500,-1.28145,0.14824,0.54237,0.09209,-0.69762,-0.87119,-0.78646,0.69330,-0.27389,-0.73916,-0.82543,-0.50753
4,199,0.41136,0.33366,-0.22957,-0.12980,0.24419,-0.70929,0.11408,-0.01613,-0.51943,-0.96367,1.22179,0.19294,-0.01536,-0.25408,-0.72489,-0.35733
5,199,-0.28260,0.27650,0.23036,-0.33752,-0.86859,-0.01034,-0.20976,0.01500,-0.70723,-0.27595,0.16333,0.62800,0.08324,0.10865,-0.44095,-0.18548
6,197,-0.83959,-0.51195,0.93692,-0.32915,-0.63741,-0.86673,0.54826,0.02174,-0.42260,-1.10127,0.45049,1.02791,0.03238,-0.52160,0.32505,0.06982
7,199,0.83593,0.16708,0.14047,-0.73567,-0.43068,-0.57264,0.13923,-0.57463,-0.94210,-0.75845,0.85838,0.80556,0.69507,0.29747,0.04578,-0.04317
8,199,1.02113,0.40159,0.74660,0.49375,0.07883,-0.34188,0.65996,-0.25777,-1.43279,-0.71020,-0.15390,0.73746,-0.40724,-0.74116,-0.77971,0.05568
9,199,0.03991,-0.46538,-0.29056,-0.26000,-0.82575,-0.01403,-0.92485,-0.40175,-1.19882,-0.40376,-0.97361,0.45883,0.19902,0.36121,0.02350,-0.14117
10,199,0.52692,0.57313,-0.79493,0.58136,-0.91356,-1.00144,0.20090,-0.24300,-0.67143,-0.69855,-0.79944,0.84812,0.97502,-0.23844,-0.34005,-0.07876
11,199,-0.75830,-1.01679,-0.17442,0.52014,0.93807,-1.05481,0.96199,-0.08564,-1.23285,-0.21608,0.10829,0.61065,0.55153,0.05771,-0.61410,-0.05260
12,199,-0.43661,-0.52018,-0.04418,-1.05810,-0.33975,-0.76741,-0.17230,-0.86125,-0.79630,-1.08236,0.58901,0.90605,0.29100,0.64562,-1.17131,-0.10844
13,199,0.10798,-0.74494,-0.30059,-0.04318,-0.72913,-0.13423,-0.48676,-0.02525,-0.48808,-0.26369,0.09485,0.52476,0.23612,-0.16013,-0.56368,-0.17155
14,199,0.13175,-0.77099,0.06033,0.64755,-0.46234,-1.23629,-0.55453,-0.20466,-0.66524,-0.54329,-0.09172,0.41709,0.61057,-0.47060,-0.60695,-0.54639
15,198,-0.74141,-0.64849,0.33489,-0.90121,-0.65242,-0.80514,0.20089,-0.27686,-0.98078,-0.79705,-0.27823,1.06055,-0.67037,-0.06394,-0.22280,0.65676
16,199,0.53489,0.19034,-0.90247,-0.58731,-0.66557,-0.01545,0.22124,-0.12727,-0.51986,0.11527,0.22568,0.57542,-0.52418,-0.11458,-0.18683,-0.26234
17,199,0.46019,-1.13866,-0.87911,0.84909,-0.97772,-0.06428,-0.42503,-0.72924,-0.63942,-0.81680,0.98882,0.28278,-0.76557,-0.39499,-0.51583,0.05070
18,199,-0.20256,-0.62540,-0.72025,0.43208,0.01654,-1.14335,-0.55729,-0.98776,-0.68063,-0.81202,-0.37116,0.43047,-0.31756,0.45804,-0.95300,0.11529
19,199,0.51516,-0.23805,-0.45827,1.33932,0.35437,-0.99957,-0.83929,-0.76332,-1.07325,-1.14444,-0.04708,0.24451,0.25801,-0.19772,0.46910,-0.36902
20,198,0.61077,-0.77430,-1.02183,-0.72806,-1.10901,-0.51114,0.60324,-0.47644,-0.45222,-0.74552,-0.14140,0.51108,0.31823,-0.64378,-0.31831,-1.17629
21,199,1.03593,-0.24272,-0.65752,0.26152,-0.96106,-0.30036,0.37418,-0.79119,-0.69005,-0.70475,-0.81397,0.15384,0.41345,-0.31717,0.53512,-0.06414
22,199,-0.74555,0.07708,0.85632,-0.42499,-0.54294,-0.69648,-0.49427,0.02444,-0.62185,-0.70373,0.39090,0.79682,-0.81931,0.19375,-0.98716,0.10621
23,199,-0.22277,-1.16113,1.10659,-0.29844,-0.63735,-0.91162,0.87503,-0.23622,-0.99339,-0.77189,0.58257,0.92759,0.69348,0.19706,-0.67474,-0.88395
24,199,0.43858,-0.55391,-0.60899,-0.12910,-0.60408,-0.53207,0.83579,-0.46465,-0.79402,-0.74431,0.80290,0.97681,0.67175,-0.05915,0.15546,-0.50037
25,199,0.57131,-1.13076,-0.70159,0.33501,-0.78631,-0.81889,0.14789,-0.85317,-0.25709,-0.09738,-0.59788,0.25661,-0.13129,-0.01325,-1.12271,-0.60885
26,199,-0.03599,-0.75974,0.87316,-0.08306,-0.63044,-0.71822,-0.39909,-0.45026,-0.85311,-0.05234,-0.26706,0.83927,-0.33695,0.20619,-1.07495,-0.25155
27,199,0.36350,0.17191,-0.83948,0.59071,-0.63813,-0.37735,-0.72045,-0.57518,-0.94778,-0.38940,-0.49387,0.28762,0.18853,0.33765,0.62482,-0.19488
28,199,0.15963,0.68033,-0.75661,0.26044,-0.44000,0.37980,-0.49766,-0.09702,-1.12114,0.34331,0.04608,0.52861,0.59264,-0.03700,-0.76337,-0.13914
29,199,0.58475,-0.53732,0.09760,0.62710,0.03393,-0.70211,0.53681,-0.69076,-0.14143,0.02318,-0.11885,0.62864,0.56677,-0.00650,0.45516,0.01026
30,199,-0.26816,-0.79599,0.15358,0.73820,0.76288,-0.74577,-0.36217,-0.05235,-0.51014,-0.20932,-0.61600,-0.07585,0.93622,-0.45488,-0.88235,-0.96759
31,199,-0.16714,-0.75685,-0.48957,-0.45519,0.86181,-1.02316,-0.80141,-0.30887,-0.81088,-0.43834,0.00139,0.28299,-0.43318,0.15727,0.14430,-0.34107
32,199,-1.10870,0.79353,-0.95502,0.58431,-0.26997,-0.82505,0.70115,-0.66727,-0.61496,-0.09138,0.49794,0.78674,-0.54037,-0.20012,0.37759,0.19660
33,199,-0.44277,0.46687,-0.60516,0.55205,0.55026,-0.97918,0.06733,-0.32087,-0.79683,-0.22256,0.01466,0.22464,0.85378,0.53055,0.07171,-0.18896
34,199,-0.14302,0.07063,-0.28379,0.62922,-0.11994,-1.00198,0.12105,-0.19652,-0.43493,-0.16118,-0.17902,0.87087,0.00328,-0.58071,-0.02111,0.19262
35,199,0.89073,-0.90546,-0.36691,0.48037,-0.39053,-0.77336,0.26799,-0.34081,-0.66639,-0.37667,0.52487,0.18651,-1.00598,-0.22694,-0.31395,-1.12201
36,199,0.47933,-0.43384,-0.14394,0.51913,0.13931,-0.69304,-0.78477,-0.45640,-0.98935,0.37033,-0.39223,0.86677,-0.61477,-0.31866,0.20342,0.24441
37,199,0.91225,0.60151,-0.05785,0.41881,-0.80505,-0.43900,0.18327,-0.21866,-0.79323,-0.73481,-0.45183,0.04491,0.41579,0.04798,-0.37692,-0.76495
38,199,-0.12082,0.48608,0.41036,0.60299,-0.83850,-0.81414,-0.28217,-0.27671,-1.10747,0.25954,0.68653,0.74143,-0.10747,0.40939,0.24255,-0.69261
39,198,-0.82609,-1.02649,-0.77214,0.10294,0.41038,-0.98884,-0.78182,-0.30890,-0.46512,-0.13483,0.09678,0.34870,0.92906,0.13636,-0.15239,0.45039
40,196,-0.65061,-0.15443,0.70252,0.56359,0.02125,-0.11805,0.84239,-0.70441,-0.26615,-0.77697,0.99687,0.55498,-0.83981,-0.04924,0.77248,0.20106
41,199,-0.40918,0.02569,-0.16291,0.83935,-0.51976,-0.27890,-0.09104,-0.50881,-1.09023,-0.69234,-0.52639,0.66505,0.00402,-0.36825,0.08977,-0.33079
42,199,0.28940,-0.36344,-0.46817,0.22864,-0.44428,-0.67640,1.14025,-0.22946,-0.95934,-0.90270,-0.87320,0.92460,-0.09355,0.36472,-0.94887,-0.00099
43,199,-0.41661,-0.57131,-0.33222,-1.23676,-0.71519,-1.13979,0.66781,-0.00124,-0.91964,0.35755,-0.77840,0.97516,-0.47643,0.15179,-0.26468,0.22782
44,197,-0.00226,-0.69702,0.91394,0.75546,-1.02677,0.34378,0.97458,-0.82165,-0.65595,-0.52944,0.42753,0.82925,-0.34593,-0.54736,0.57970,0.43730
45,199,0.22695,0.48806,-0.67680,-0.55764,-0.09262,-1.14934,0.48299,-0.83791,-0.92861,-0.16636,-0.83373,0.58809,-0.53176,-0.06845,0.25735,0.38148
46,199,0.37883,-0.31799,-0.50551,0.92974,-0.07673,-0.45278,0.45712,-0.65509,-0.84916,-0.69269,-0.62486,-0.11956,0.23568,0.43252,-0.32736,-0.43522
47,199,0.13851,-0.18075,-0.39486,-0.64214,-0.55347,-0.30836,-0.30554,0.19335,-0.99585,-1.11032,0.27754,0.69504,-0.97484,-0.33942,-0.27691,-0.24403
48,199,-0.72250,-0.92448,0.56149,0.94688,0.36900,-0.63325,0.02053,-0.07680,-1.06189,-0.86108,0.28622,0.92809,0.65456,-0.76484,0.04600,0.18452
49,199,0.95826,0.01087,-0.87831,-0.10767,-0.14183,-0.30839,-0.39980,-0.44142,-0.69229,-0.90199,0.01631,0.54932,-0.80340,-0.46751,-0.65815,-0.21101
50,199,0.58538,-0.98421,-0.69789,-0.87302,-0.62696,-0.70675,-0.91468,-0.95242,-1.00920,-0.61720,0.52921,0.53982,0.53289,0.27174,0.75902,-0.17801
51,198,0.95258,-1.00719,-0.34872,0.38659,-0.24481,0.37140,-0.27911,-0.51624,-0.37004,-0.75265,-0.14481,0.35875,0.33829,-1.14743,-0.31630,0.32157
52,199,0.37840,-0.00055,-0.42895,-0.07665,0.16581,-0.91629,0.11412,-0.64922,-0.66429,-0.54984,-0.84400,0.27918,-0.36692,-0.22851,0.59447,-0.50537
53,199,-0.76326,-0.42123,-0.26736,0.60194,-0.54298,-0.91612,-0.82981,-0.49376,-1.21748,-1.15386,-0.93659,0.53177,0.72783,0.30958,0.56301,0.13585
54,199,1.02178,-0.55112,-0.69908,0.11024,-0.20795,-0.73761,-0.85033,-0.76185,-0.61385,-0.74300,0.53942,0.57855,-0.33136,0.52217,0.48916,-0.42407
55,199,0.99435,-0.52525,-0.58942,-0.49498,-0.96456,-0.81011,-0.89306,-0.54341,-0.90600,0.29568,0.79039,0.96868,-1.05034,0.10540,-0.38755,-0.37719
56,199,0.64995,0.34645,-0.52797,0.35991,0.22690,-0.74906,-0.08953,-0.71308,-1.07243,-0.80581,0.36421,0.37547,-0.86439,-0.51067,0.02338,0.04548
57,199,0.55364,-0.27511,-0.73946,0.54153,0.15726,-0.45915,0.32326,-0.38538,-1.05862,0.67054,0.30375,0.69023,0.60141,0.43262,0.25128,-0.13536
58,199,-1.01487,0.24838,-1.03580,0.86876,-1.28877,-0.65058,0.11028,-0.09411,-0.20129,-0.55960,0.05131,0.38749,0.21367,-0.48745,-0.77606,-0.73032
59,198,0.38349,-0.10875,1.06748,-0.18865,-0.02476,-0.31746,-0.30573,-0.89992,-0.71430,-0.71673,-0.22565,0.53157,-0.64787,-0.31130,-0.97184,0.23165
60,199,0.68418,0.41572,0.89906,0.09585,-0.60916,-0.74349,-0.15575,-0.28222,-1.00164,-0.34714,-0.48141,0.97394,-0.05536,-0.09438,0.46255,-0.16524
61,199,-0.26492,-0.29368,-0.29636,-0.48692,-0.69933,-0.07197,0.99999,-0.01013,-0.77963,0.38402,-0.30038,0.49225,-0.96152,0.03351,-0.05486,0.23545
62,199,0.65737,-0.35873,0.24208,-0.12112,-0.05590,-0.45415,-0.04096,-0.21285,-0.98113,-0.08489,0.22644,0.52458,0.09216,0.00416,-0.75927,-0.72257
63,198,-0.09269,1.09709,-0.74009,-0.25773,0.17352,-0.86256,0.56431,-1.01596,-0.96173,-0.44231,0.34832,0.58641,-0.68930,0.22748,-0.81653,0.42802
64,200,0.38486,-0.80176,-0.85813,0.26092,-0.83062,-0.78459,0.20381,-0.45044,-0.44554,-0.34166,0.80671,1.12692,-0.83153,0.03885,0.74293,-0.37012
65,199,-0.06227,0.95635,-1.34395,0.09593,-0.57644,-0.94950,-0.83329,-0.31518,-0.79146,-0.81179,0.26632,0.84854,-0.52987,-0.83646,-0.17751,0.11635
66,199,0.68961,-1.09803,0.56504,0.89532,-1.28412,-0.01350,0.63750,-0.36973,-0.55970,-0.81618,-0.37926,0.56119,0.68352,-0.96239,0.42368,0.02991
67,199,-0.18375,0.64710,0.36784,0.97978,-1.12266,0.09309,0.91152,-0.24383,-0.45355,-0.71333,-0.34611,0.46134,-0.41380,-0.34576,-0.65040,-0.18536
68,199,1.06071,-0.43700,-0.06254,0.00078,-0.86359,0.43213,0.22757,-0.26516,-1.07161,-0.38492,0.79953,0.40789,-0.38786,0.01024,0.57967,-0.27489
69,199,0.50263,-0.86011,-0.40275,0.72122,-0.91072,-0.11215,-0.89682,-0.73048,-0.81296,-0.06962,-0.43866,0.43905,-0.30822,-0.04351,-0.58251,-0.44895
70,199,-0.57358,-0.37453,0.85040,0.39408,-0.47022,-0.31080,-0.32924,-0.37186,-1.18119,-0.08158,0.71380,1.05197,0.12679,0.03446,-0.19360,-0.34781
71,199,0.02065,-0.38714,-0.58477,-0.72166,-0.37396,-0.71766,-1.06869,0.09927,-0.89042,0.26885,-0.46388,1.07083,0.30232,-0.33000,-0.53862,-0.22653
72,199,0.81816,0.42769,-0.94871,0.23043,-0.64177,-0.35460,-0.02343,-0.34879,-0.93337,-0.94643,-0.68372,0.39974,-0.65379,-0.11980,-0.85310,0.06412
73,199,-0.59412,0.37967,-0.80060,0.98189,0.36247,-0.39574,-0.63532,-0.46517,-1.00479,-0.02395,-0.15646,0.45538,-0.54429,0.33590,0.13945,-0.03223
74,198,0.51982,-0.74628,-0.86961,-0.09737,-0.72702,-0.63320,-0.39633,-0.43519,-0.47639,0.18649,-1.00491,0.59686,-0.87749,-0.47883,0.05438,-0.70856
75,198,-0.17518,-0.24266,-0.67770,0.86207,-0.56275,-0.23906,-0.32424,-0.41023,-0.39610,-0.61782,-0.36212,0.52960,-0.83668,-0.32342,0.38386,-0.16122
76,199,-0.36949,-1.09864,0.58564,0.41613,-0.16016,-0.37259,0.79456,-0.13775,-0.58992,-0.52302,1.00684,0.72317,-0.43566,0.36218,0.63084,-0.75750
77,199,0.72935,-0.79612,-0.07470,0.32759,-0.83146,-0.27341,-0.30006,-0.15564,-0.48109,0.21487,-1.11377,0.60225,0.01263,-0.37168,-1.15485,-0.84171
78,198,-0.79772,0.13595,-0.10719,0.29405,-0.24253,-0.70833,-0.69873,-0.01795,-0.88844,-0.26660,-0.09425,0.78299,0.04728,-0.45914,-0.49639,-0.33383
79,199,-0.59863,0.09340,-0.62127,-0.33527,0.51472,-0.69661,-0.14603,-0.33233,-0.89754,-0.47005,-0.63545,0.50683,0.54273,-0.37434,-0.95588,0.19383
80,199,0.64012,-1.21853,0.12716,-0.32116,-0.25890,-0.50640,-0.55570,-0.24506,-0.83780,-0.77746,-0.54460,0.41214,-0.23990,-0.01409,0.43488,-0.22300
81,198,-1.12410,-0.05680,-0.53693,-0.05073,0.22555,-0.50553,1.00188,-0.51192,-0.92939,0.15319,0.91850,1.00277,0.60350,0.23123,-0.58741,-0.50588
82,199,-0.91567,-0.40641,-0.74273,0.25521,-0.90656,-0.08982,-0.10123,0.17646,-0.99168,-0.39276,0.81463,0.94672,0.71419,-0.68535,0.08459,-0.10834
83,199,-0.76186,-0.25076,0.64733,0.66842,-0.15902,-0.63787,-0.89973,-0.67205,-1.07790,-1.00789,0.22099,1.08855,0.80395,-0.51955,-0.16130,-0.25202
84,199,0.50350,-0.07371,0.96632,-0.97931,-0.22374,-0.83701,0.97591,-0.26499,-0.48706,-0.45158,-0.42299,0.72082,0.50131,0.20480,-0.84609,-0.64513
85,199,-0.06758,0.48693,0.19296,0.28575,-0.84785,-0.80734,0.11218,-0.28198,-1.18120,-0.68901,-0.40498,0.50547,0.20796,0.37612,0.19184,0.02913
86,198,-0.07961,-0.78352,0.80447,-0.54042,-0.85542,-0.60241,-0.77230,-0.65614,-0.81999,-0.53467,0.05417,0.95299,-0.96152,-0.59820,-0.12762,0.67650
87,199,0.25595,-0.15516,0.20292,-0.15673,-0.22015,-0.45308,-0.30270,-0.55729,-0.84733,-0.81812,-0.51374,0.40190,-0.01945,0.62169,-0.17813,-0.16007
88,198,0.28428,0.00208,-0.73117,-0.35821,-0.76629,-0.72526,-0.88301,-0.08308,-0.39800,-0.10770,0.10716,0.87511,0.19632,-0.79823,-0.48420,-0.55656
89,199,0.06744,-0.58360,-0.08448,-0.86121,-0.87156,-0.84341,0.86366,-0.69279,-0.80445,-0.09287,-0.76027,1.24241,0.16588,-0.17522,-0.93261,0.17614
90,199,-0.47965,-0.07481,-0.99553,0.79976,-0.71402,-0.94863,-0.97253,-0.14793,-1.17017,0.36644,0.38348,0.75681,-0.19472,-0.71742,-0.66073,-0.90569
91,199,0.74042,0.22867,-0.75273,0.42947,-0.80123,-0.76463,0.63703,-1.00954,-0.17726,-0.91397,-0.28682,0.39774,0.70538,0.03254,-0.02663,-0.08774
92,199,0.57680,-0.06742,-0.83551,0.20401,-0.59958,-0.34489,0.42347,-0.24934,-0.88991,-0.29186,-0.77714,0.83022,-0.65196,0.33547,0.47030,0.32705
93,198,0.49080,0.15267,-0.37382,0.87626,-0.93509,-0.67214,0.72323,-0.75875,-0.89751,-0.10063,0.47572,1.04161,-0.24846,-0.70361,-0.38939,0.41699
94,198,0.42303,-0.29533,0.53323,0.52444,-1.10807,0.77039,-0.50905,0.04603,-0.96023,-0.32263,-0.36125,0.76209,0.59500,-0.50805,-0.04211,-0.35710
95,198,-0.27293,0.18976,-0.18211,1.12499,-0.91125,-0.89521,0.06074,-0.42920,-0.10910,0.08293,-0.54375,0.11832,-0.82299,-0.53214,-1.03247,-1.12659
96,199,0.56819,0.41818,-0.48927,0.21294,0.44208,-0.83511,1.21207,-0.12041,-1.07937,-0.84932,-0.90241,0.97176,-0.12906,-0.61513,-0.15802,-0.73420
97,199,0.79881,0.58676,-0.59611,-0.49955,0.04307,-0.79460,-0.31611,-0.31472,-0.51403,-0.25380,-0.26880,0.74160,-0.10711,0.16942,-0.34469,0.06921
98,199,-0.67070,0.34799,0.73861,-0.70885,-0.92307,-1.13344,-0.76607,-0.04530,-1.05642,-0.34183,-0.11577,0.61796,0.53921,-0.01309,-0.33475,-1.25410
99,199,-0.52246,0.77266,-0.46942,0.24404,0.04474,-0.93932,0.09764,-0.09507,-1.16369,-0.49467,-0.50441,0.80480,-0.75418,0.17461,0.35087,-0.10610
100,199,0.85003,-0.28332,-0.16059,0.43935,-0.30996,0.40098,-0.42148,-0.51213,-1.00487,-0.83847,-0.65761,0.57459,-0.86035,-0.59223,-0.39618,-0.94370
101,199,-0.34987,-0.48413,0.32836,0.64174,-0.30465,-0.81638,-0.71909,-0.26592,-0.49097,-0.12256,-0.44054,0.51423,-0.22844,-0.17047,-0.72842,-0.84954
102,199,0.65489,-0.77345,-0.14065,0.62276,-1.00353,-0.44490,0.58351,-0.81667,-0.67952,-0.19707,0.01756,0.42476,-0.33486,-0.63258,-0.34789,-0.26143
103,199,0.19454,-0.25252,-0.01604,-0.20360,0.38879,-0.96644,-1.00539,-0.70857,-0.40084,-0.95360,-0.95127,0.89642,0.30696,-0.29793,0.85014,0.42129
104,199,0.10303,-0.68084,-0.10881,-0.32549,-0.71965,-0.85799,-0.93384,-0.42138,-0.57313,-0.81694,-0.29000,1.06272,0.43058,0.06456,-0.23257,-0.55640
105,199,0.98615,-0.61944,-0.27389,-0.42656,-0.23911,-0.47555,-0.52368,-0.87340,-0.81534,0.60398,-0.80243,0.82117,0.81129,0.75835,-0.63859,-0.01413
106,199,0.49217,-0.62744,0.93774,0.86020,-0.17573,-0.99328,0.07409,-0.98611,-0.92310,-0.32974,0.71663,0.58987,-0.56168,-0.42213,-0.32975,-0.34164
107,199,-0.37838,-0.62622,0.87913,0.91976,-0.10355,-0.63502,0.51702,-0.12893,-0.43005,-0.22186,0.51040,0.45894,0.86878,0.14457,0.10164,-0.65668
108,199,0.56961,0.07896,-0.27865,-0.41924,-0.77365,-0.46221,0.85908,-0.31222,-0.82764,-0.87435,-0.76239,0.60985,-0.66433,-0.40365,0.15568,-0.60700
109,199,-0.18262,0.17911,-0.48427,0.47563,-0.53603,-0.44858,-0.77958,-0.28313,-0.68793,0.71520,-0.10157,0.98340,0.51445,-0.98434,-0.08600,-0.77200
110,199,0.27684,-0.00284,-0.80021,-0.04689,-0.18418,-0.05104,-0.40573,-0.22168,-0.71673,0.60232,-0.82749,0.58889,-0.56883,-0.14759,-0.05499,0.09108
111,198,-0.98696,0.80087,-0.88744,0.27898,-0.17048,0.25525,0.00371,-0.70043,-1.14484,-0.24795,0.81582,0.96805,0.15707,-0.61399,-0.74264,-0.54652
112,199,0.54790,-0.85838,-0.48442,0.98826,-0.35496,0.24197,-0.85335,-0.15224,-0.87748,-0.52678,-0.46921,0.82469,0.24854,-0.85595,0.22132,-0.32635
113,199,-0.72069,-0.60576,-0.18974,0.34949,-0.46171,-0.90949,-0.13720,-0.52538,-0.37441,0.17151,-0.04978,0.29842,-0.27314,0.20134,-0.56818,-0.65285
114,199,-0.83983,0.24038,-1.20458,0.93966,-0.00697,-0.73378,0.91504,-0.37514,-0.69245,-0.95839,-0.50956,0.03410,0.14207,0.00721,0.52804,-0.28317
115,198,-0.80077,-0.02313,-0.35376,-0.22548,-0.31857,-0.65978,0.54060,-0.49294,-0.66438,-0.45486,0.18255,0.90838,-1.14504,-0.18582,-0.42491,0.05833
116,199,-0.23312,-0.80476,0.90097,0.73633,-0.28369,-0.35983,-0.76436,-0.53341,-0.81520,-0.46051,-0.53242,0.27064,-0.88857,-0.02951,0.06049,-0.15625
117,199,0.67436,0.04304,-1.11251,0.85803,-0.74224,0.70356,-0.37494,0.01601,-1.02958,0.99336,0.68600,1.11710,0.27624,-0.88881,-0.63066,-0.45018
118,199,0.27718,-1.05308,-0.06248,0.50435,-0.23879,-0.75648,-0.62437,-0.95759,-0.88958,-0.97135,0.66721,0.63422,0.36042,-0.34580,0.23101,-0.03804
119,199,-0.23029,0.43664,-0.47472,-0.28582,-0.46151,-0.24104,0.30547,-0.44848,-0.61996,-0.86363,-0.45074,0.55605,0.19716,0.04443,-0.80611,0.06289
120,199,0.26623,-0.57336,-0.30838,0.19276,-0.28413,-0.86308,0.85710,-0.69964,-0.73409,-1.10122,-0.01181,0.49736,-0.02956,-0.52145,0.33714,-0.47766
121,199,0.78700,-0.72684,-0.77071,-0.07783,-0.45026,-0.38314,-1.04934,-0.35008,-1.05692,0.65813,-0.32093,1.03853,-0.02314,-0.00035,-0.38738,-0.25783
122,199,0.21701,-0.22933,-0.06290,-1.22589,0.05211,-0.84479,0.26072,0.04843,-0.71263,0.53235,-0.37260,0.65193,-0.10033,-0.02084,-0.18334,-0.11527
123,199,-0.84779,-0.53060,-0.73492,0.84064,0.14041,-0.14576,-0.04775,-0.38540,-0.82164,0.23609,-0.40061,0.71913,-0.86952,-0.06028,-0.46689,0.41760
124,199,0.36363,0.16954,-0.98380,-0.76778,-0.20525,-0.30240,-0.37290,-0.15411,-0.55468,-0.44094,0.36694,1.08533,0.67730,-0.60394,-0.40715,0.29120
125,199,-0.72476,0.91576,0.78657,0.49271,-0.62731,-0.79176,0.23046,-0.05387,-0.85891,-0.64218,-0.14262,1.17616,-0.16980,-0.37203,0.42812,-0.51112
126,199,0.39797,-0.14066,0.14733,-0.25532,0.01905,-0.64825,1.24079,-0.13683,-0.31986,0.35945,-0.14432,0.75046,0.62384,-0.07348,-0.84673,-0.35350
127,199,-0.39796,-0.08493,-0.54424,0.06361,0.15551,-0.88410,0.84754,0.14351,-0.79724,-0.88923,0.00265,0.38198,0.84325,-0.59284,-1.03628,-0.06105
128,199,-0.38015,0.44307,0.12369,-0.28023,-0.54566,-0.56644,-0.93432,-0.46054,-0.89604,-0.80067,-0.97695,0.08964,-0.74345,0.41540,0.78850,-0.16370
129,199,-0.69506,-1.19616,-0.74605,0.78254,-0.50171,-0.39432,0.84725,-0.05590,-0.63965,-0.89531,-0.40814,0.49142,-0.66898,-0.53683,0.74602,-0.65965
130,199,0.02814,-0.76572,0.19120,-0.22862,-0.75686,-0.52136,-0.03602,-0.49725,-0.62611,-0.90937,0.95319,0.53973,-0.02183,-0.15411,0.02498,0.15004
131,199,-0.82448,0.61564,0.33357,0.04557,-1.22864,-0.36959,-0.84365,-0.02547,-1.05787,-0.09664,0.67518,0.71631,0.96208,0.39979,-1.00280,-0.46384
132,199,-0.41466,-0.45956,0.29538,-0.28804,-0.06835,-0.24812,-0.17247,-0.03035,-0.74729,-0.38331,-0.90686,0.92236,-0.42567,-0.23810,0.28352,-0.35424
133,199,-0.00671,0.53295,0.08735,0.57375,-0.23686,-1.07203,-0.00391,-0.52488,-1.00445,-0.72901,0.67969,0.84314,0.68542,-0.39817,-0.08786,-0.54340
134,199,-0.45906,-0.56376,0.02317,0.77741,-0.58809,-0.37009,-0.54773,-0.25220,-0.46883,0.35270,-0.43528,0.63198,0.16268,0.41606,-0.34956,-0.45009
135,199,-0.44886,0.24599,-0.19686,0.69926,-0.52364,-0.95622,0.21512,-0.10642,-0.58402,-0.98311,-0.87642,0.61760,0.32754,-0.46568,-0.59230,-0.15459
136,199,-0.28336,-0.69255,0.28201,-0.04932,-0.70058,-0.74710,0.28138,-0.21928,-0.46889,-0.59148,0.29286,0.25522,0.67846,-0.18155,-0.39197,-0.34513
137,199,0.61317,-0.58331,-0.40938,0.58568,-0.56307,-0.93698,-0.07097,-0.41364,-1.11781,-0.31476,-0.79386,0.80046,1.10339,0.66330,-0.66733,0.55075
138,199,0.45357,0.93458,-0.76810,0.29136,-0.26752,-0.58451,-0.43069,-0.32762,-0.18595,-1.00390,-0.38753,0.84243,0.36981,0.01934,-0.73142,-0.07133
139,199,-0.04425,0.10329,0.63997,0.36794,-0.66712,-0.49406,-0.73455,0.07589,-0.99591,-0.83066,-0.54035,1.09883,0.24266,-0.59626,1.23377,-0.59024
140,199,0.91243,-0.16256,0.51747,0.47936,-0.30720,-0.81028,0.77246,-0.51129,-0.65520,-0.75822,0.30239,0.69538,-0.01098,0.40141,0.25959,-0.39309
141,199,-0.20135,-0.44724,0.91375,0.90827,-0.66734,0.31152,-0.93207,-0.61254,-0.83010,-0.19092,-0.35860,0.91988,-0.05032,-0.36629,0.87592,-0.87884
142,199,-0.75984,-0.40273,-0.35308,-0.02315,-0.77966,-0.83810,0.58658,-0.54025,-0.44794,-0.96030,-0.94531,0.07885,-0.01103,0.16334,-1.11044,0.10092
143,199,0.62978,0.75087,-0.92221,0.79428,-0.22060,-0.12217,-0.91020,-0.24699,-0.61451,-0.65499,-0.15860,0.32300,-0.02110,-0.27337,-0.93074,-0.39350
144,199,-0.97379,1.02654,1.05565,0.20112,-0.22449,-0.08809,-0.15386,0.20229,-0.93916,-1.20938,0.41542,0.95535,0.51948,-0.48255,-0.73838,-0.71426
145,199,0.43328,-0.93729,0.26410,0.05109,0.34350,-0.80834,0.42793,-0.06950,-0.60297,-1.03910,0.86018,0.36811,-0.54908,-0.64734,0.01474,-0.46242
146,198,1.03367,0.07291,-0.20886,0.13744,-0.55444,-0.42909,-0.62069,-1.03727,-0.30925,-0.47987,0.98220,0.46952,-0.01489,-0.06801,0.37173,-0.23132
147,198,0.82395,-0.46024,0.64422,-0.84008,-0.25409,0.12713,0.91494,-0.42102,-0.49773,-0.77974,-0.67493,0.96611,0.57700,-0.75169,0.62708,0.56769
148,199,1.23933,0.50141,-0.29999,0.91799,-0.42728,-0.45501,-0.47039,-0.67701,-0.38510,-0.90305,-0.56027,0.28498,-0.38312,-0.32566,-0.35219,-0.50625
149,199,0.19935,0.29337,-0.27067,0.79996,0.03815,-0.49665,-0.81173,-0.50414,-0.65629,-0.78149,0.55033,0.84747,0.16325,-0.01473,0.98508,-0.20668
150,199,0.50081,-0.79460,0.87404,0.12284,0.06250,-0.65727,1.15935,-0.29962,-0.33240,-0.43007,-0.77117,0.21612,-0.45804,-0.02386,-0.64965,-0.18805
151,199,0.11863,-0.90524,-0.87539,-0.20853,-0.85309,-0.34193,-0.41909,-0.58806,-0.31898,-0.20642,-0.87742,0.80720,0.14509,-0.80771,0.31704,-0.10601
152,199,0.62234,-0.79944,-0.20107,-0.64286,-0.07130,-0.20797,-0.74571,-0.04713,-1.12979,-0.49548,0.06821,0.60494,-0.32404,-0.80732,-0.40524,-0.58198
153,199,-0.50206,0.16753,0.21541,0.03537,-0.91404,-0.31483,0.22003,-0.44053,-0.50906,-0.54137,0.82602,0.35442,0.93399,0.26244,-0.80280,-0.04617
154,199,0.34772,-0.52406,-0.32548,-0.61080,0.30219,-0.76757,0.71989,-0.33940,-0.74740,-0.25085,-0.36551,0.15866,0.36698,0.28539,-0.77182,-0.11405
155,199,0.13970,-0.29956,-0.26776,-1.12963,0.16956,-0.66864,-0.90605,-0.09866,-1.02744,0.17731,-0.80559,0.21829,0.94373,-0.02261,-0.62352,-0.79704
156,199,0.86324,-0.43668,0.50909,0.19976,-0.13149,-0.58513,0.15505,-0.07429,-0.62228,0.07443,-0.48065,0.62304,-0.41878,-0.00153,-0.00970,-0.16771
157,199,-0.38489,0.21351,0.84951,0.76623,-0.59117,-0.32168,-0.31029,-0.54799,-1.03042,-0.34810,0.91928,0.97194,-0.27693,-0.44820,-1.03699,-0.17851
158,199,-0.71365,-0.45594,-1.03796,0.30668,-0.69311,0.24303,-0.88056,-0.06574,-0.86682,-0.58076,-0.76637,0.93808,0.09533,-0.15180,-0.60747,-0.03896
159,199,0.43916,-0.79092,-0.48458,0.53766,-0.85562,-0.90683,0.58114,-0.01248,-1.07846,0.30062,0.14847,0.76319,0.83735,-0.15199,-0.70327,-0.16299
160,198,0.23581,-1.03562,-0.92615,0.82803,-0.12717,-1.01416,-0.18657,-1.00664,-0.81618,-0.89999,-0.81871,0.62267,0.20583,-0.58082,-0.63980,0.17263
161,199,-0.71963,0.19339,-0.97454,0.58698,-0.76375,-0.26562,0.24455,0.00520,-0.55139,0.05906,0.13841,0.47785,0.18203,-0.41026,-0.64143,-0.75637
162,198,-0.05141,-0.41079,-0.13113,-0.41115,-0.42349,-0.61530,-0.01267,-0.12379,-0.82296,-0.73196,0.97840,0.98978,-0.95683,-0.17552,0.73538,-0.45336
163,199,0.30027,-0.25215,-0.75945,0.64291,-0.87320,0.08840,-0.30177,-0.59061,-0.75990,0.51742,-0.79592,0.79312,0.62254,-0.18213,0.44353,-0.21729
164,199,-0.40476,-0.78871,0.21194,1.04798,-0.60617,-1.04009,-0.92272,-0.27267,-0.37158,0.80259,-0.50128,0.24150,0.69272,-0.06715,0.06633,-0.93594
165,198,0.99351,-0.77775,1.00395,-0.00087,-0.13415,-0.04520,0.00716,-0.54130,-0.95662,-0.72908,-0.45454,0.68197,0.04133,-0.24000,-0.84860,0.24534
166,199,-0.32120,-0.96376,0.53582,0.84633,-0.54330,-1.17377,0.00223,-0.30279,-0.81012,-0.87570,-0.06916,1.12383,0.11039,-0.72586,0.40805,-0.22871
167,199,-0.07748,0.74335,-0.95717,0.45806,-0.77807,-0.19847,-0.80673,-0.58087,-0.90425,-0.02389,-0.57922,0.34775,0.66040,-0.35765,-0.33212,-0.44029
168,199,-0.39896,0.50244,0.01298,0.81708,-0.60636,0.48639,-0.23324,-0.20388,-1.13530,-0.72972,0.42358,0.02874,0.19827,0.03853,-0.48867,-0.66086
169,199,0.75022,-0.69676,-1.23398,0.43289,-0.77920,-0.84630,-0.60105,-0.84295,-0.78329,-0.60952,-0.23315,0.22640,0.00242,-0.12268,-0.61240,-0.48082
170,200,-0.75704,0.33976,-0.95379,0.35594,-0.31452,-0.92041,-0.24704,-0.37151,-0.60210,-0.80424,0.69658,0.89538,0.15046,-0.25937,0.42329,-0.02594
171,198,0.36952,-0.91213,-0.04134,-0.06078,-0.18689,-0.48919,1.13408,-0.07544,-0.94263,-0.53143,-0.79851,0.29687,0.09551,0.07233,-0.35176,-0.00845
172,199,-0.00104,-0.12071,0.15885,0.70659,0.02254,-0.80303,0.17756,-0.56093,-0.71006,-0.11882,0.48754,0.12861,0.44009,0.29846,0.22882,-0.37429
173,199,-0.30974,0.69799,-0.74035,-0.32571,0.17201,-0.99331,0.49034,-0.12281,-0.70947,-0.20868,0.62543,0.95286,-0.57833,0.29787,-0.90479,-0.01913
174,199,-0.51095,0.60352,0.16899,0.21654,-0.60353,-0.61145,-1.04436,-1.01625,-0.21873,-0.19322,-0.41013,0.29030,-0.15871,0.14290,-0.60145,-0.84795
175,198,0.55816,-0.70467,-0.35668,0.75819,-0.96038,-0.39735,0.54039,-0.06240,-1.00833,0.24738,-0.57039,0.94544,0.71523,-0.77365,-0.53473,0.46865
176,199,0.89981,-1.12699,-0.79536,-0.37114,0.14732,-0.35242,0.36748,-0.00094,-0.72053,0.02927,0.01750,0.37722,-0.40100,-0.72074,0.32505,-0.43043
177,199,0.34395,-0.14554,0.40157,0.21664,0.69351,-0.57389,0.14743,-0.78836,-1.06148,-0.69077,-0.75908,0.66188,0.11289,-0.25362,0.11998,0.22649
178,199,-0.18755,-0.53202,0.89054,-0.47330,-0.64447,-0.66832,-1.06845,-0.66013,-1.00340,-0.70967,-0.35613,0.79799,-0.28120,0.07706,-0.35754,0.27235
179,199,-0.30460,-0.24928,0.44057,-0.14447,-0.46018,-0.36680,-0.31989,-0.52548,-0.95458,0.28726,-0.03572,0.86288,0.28855,0.19767,-0.52160,0.05029
180,199,-0.47104,0.94187,0.78087,0.45639,-0.64990,-0.47008,-0.88067,-0.25076,-0.44338,-0.92055,0.02975,0.69521,0.33489,0.05606,0.78961,-0.32819
181,199,-0.00205,0.33354,-0.61368,0.69221,0.00523,-0.72377,-0.68229,-0.33914,-0.74832,0.05614,-0.62763,0.42249,0.26065,-0.04560,-0.96540,0.07723
182,199,0.02274,0.25236,-0.55135,0.46724,-0.69092,0.01897,-0.49747,-0.15317,-0.57082,-0.04642,-0.88464,0.12810,-0.32360,-0.14001,-0.19058,-0.14815
183,199,0.53818,0.96079,0.24291,-0.77451,-0.44239,-0.67787,-0.85224,-0.40993,-0.69309,-0.77800,-0.19684,0.79193,0.01661,0.18881,0.95196,0.06169
184,198,-0.41341,-0.17881,0.55177,0.08245,-0.01782,-0.71476,-0.78782,-0.12459,0.05039,-0.95562,-0.02453,0.45326,0.08638,-0.84469,-0.89632,0.09394
185,199,-0.16301,-0.46154,-0.94012,-0.12908,-0.32079,-0.92666,-0.79509,-0.76275,-0.83831,0.45300,-0.94242,0.63795,-0.10821,-0.31276,-0.37994,-0.50627
186,199,-0.79885,-0.09393,0.13727,0.06954,-0.48815,-0.22145,0.77859,-0.47939,-0.79940,-1.01328,-0.65617,0.59556,1.18300,0.38353,0.15920,0.20683
187,199,0.15516,-0.79191,-0.03746,-0.20994,-1.07978,-0.51250,-0.77549,-0.39865,-0.34361,-0.68185,0.56821,0.58426,-0.95553,-0.35190,-0.10751,-0.75772
188,199,0.45440,-0.51748,0.26547,0.67625,-0.06322,-0.93900,-0.53450,-0.16896,-0.77883,-0.56132,-0.73874,0.24172,0.52966,-0.40781,-0.66954,-0.64435
189,198,0.61050,-0.17244,-1.27391,-0.58607,-0.47686,-1.12086,-0.67946,-0.45218,-0.54943,0.59334,0.70960,0.68360,-0.07416,0.41949,1.08941,-0.38975
190,199,-0.24500,0.67403,-0.45076,1.23127,-1.13112,-0.32435,-0.29870,-0.87891,-0.96445,-0.67512,0.14253,0.79405,-0.78190,0.23962,-0.61589,-0.36579
191,199,0.12389,-0.88978,-0.58659,-0.23961,-0.34205,-0.65149,-0.54011,-0.08573,-0.29437,-0.34061,0.13808,1.19593,0.55495,-0.45477,0.04485,-0.27727
192,199,0.06782,-0.17489,-0.05402,-0.20188,0.49442,-1.07515,-0.13150,-0.69772,-0.64080,-0.35937,-1.10037,0.49587,-0.21993,0.52440,0.37597,-0.06933
193,198,0.24289,-0.09633,-0.79609,-0.20341,-0.51526,-0.58709,0.05156,-1.20201,-0.64563,-0.65677,-0.46600,1.01187,-1.04445,-0.79006,0.76731,0.51541
194,199,-0.27882,0.17926,-0.17579,0.12825,-0.70385,-1.04300,0.69352,-0.34941,-0.21116,-0.54569,0.60917,0.86225,-0.72993,-0.74165,0.99505,-0.47016
195,199,-0.69289,0.32540,-0.09611,-0.52772,0.22828,-0.75928,-0.97346,-0.13030,-0.95529,-0.90427,-0.68261,0.87786,-0.82544,-0.37304,0.28141,-1.03521
196,199,0.06422,-0.94901,-0.85498,-1.23710,-0.81590,-0.72943,0.51172,-0.03531,-0.74541,0.68640,1.04735,0.61279,0.66227,0.13377,0.24588,-0.24553
197,199,-0.87749,-0.71908,-0.60284,0.60462,-0.42715,0.20370,0.79575,-0.06318,-0.87485,-0.49301,-0.47278,0.86409,-0.10904,-0.23757,-0.30750,0.51863
198,199,-0.40744,0.12039,-0.71676,-0.89262,-0.46092,-1.28542,0.92394,0.03670,-0.90173,-0.20166,-0.69518,0.44525,-0.03963,0.09232,0.31107,-0.56480
199,199,0.44315,-0.46900,0.17438,0.12204,-0.81559,0.66986,-0.86789,-0.13996,-1.05888,-1.00108,-0.78164,0.49064,0.41085,-0.36829,-0.46606,0.49302
200,199,-1.00186,-0.36916,0.30783,0.58431,-0.50286,-0.78568,-0.16141,-0.22126,-0.90187,-0.74846,-0.78411,0.15104,-0.15049,0.69555,-0.79814,-0.20469
201,198,-0.23910,0.10132,0.01735,0.86809,0.38762,-0.65650,0.23306,-0.59378,-0.69321,-0.50589,-0.19392,0.61139,-0.63330,-0.20897,-0.87324,0.24585
202,199,0.00674,0.26158,-0.73302,0.90558,-0.92383,-0.29830,-0.18938,-0.73510,-0.97656,-0.07595,-0.48087,0.27320,0.03430,0.00022,-0.62507,-0.00013
203,199,0.48571,0.42715,-0.63122,-0.10783,0.18555,-0.52415,-1.05798,0.01776,-0.51754,0.06558,-0.57360,0.40471,0.00079,-0.35813,0.69353,-0.45636
204,199,0.21213,-1.01750,-0.62756,-0.94802,-0.65681,-0.61045,0.56803,0.05883,-0.69323,0.60060,-0.18995,0.62330,0.00957,0.14830,-0.36759,-0.05681
205,199,1.11228,-0.03937,0.46104,0.64775,-0.47443,-0.76221,0.55295,-0.63946,-0.94086,-0.34658,-0.10077,1.07609,-0.52225,-0.86392,-0.12029,0.38945
206,199,-0.89378,0.66641,-0.80725,-0.43071,-0.71015,-0.94884,-0.33807,-0.23678,-1.19581,-0.98621,-0.14966,0.34059,0.96424,0.45069,-0.28861,-1.01929
207,198,-0.10509,-0.86831,-0.69979,0.26857,-0.99893,-0.25084,0.54907,-0.31404,-0.42993,-0.79899,0.16694,0.52506,0.56468,-0.17742,1.05596,0.24959
208,199,1.08761,-0.95268,-0.76642,-0.18720,0.12351,-0.88628,0.83857,-0.58493,-0.65615,-0.15612,-0.65859,0.60301,0.05721,-0.07776,-0.85462,0.33589
209,198,1.16481,-0.41436,0.85468,1.06487,-0.25390,-0.53204,-0.86450,-0.58592,-0.91703,-0.00965,-0.84322,0.67576,0.35262,-0.04532,-0.10675,0.31350
210,199,-1.12816,-0.73186,0.36881,-0.83019,-0.92851,-0.84417,-0.32692,-0.32592,0.11724,-0.83341,-0.16603,0.82887,0.73740,0.09095,-0.35636,0.05842
211,199,-0.71248,-0.69880,-0.22068,0.96647,-0.34489,-0.27253,0.98450,-0.06313,-0.96957,0.36562,-0.70410,0.80131,0.09589,-0.48547,-0.41121,0.02366
212,198,-0.85347,-0.88059,0.37761,0.69863,-0.69543,0.29575,0.76596,-0.08243,-0.48490,-0.01169,-0.14077,0.57314,-0.78170,-0.55972,-0.54183,0.39066
213,198,-0.42579,-0.07372,-0.41019,1.07512,-0.98815,-0.81966,-0.84041,-0.92046,0.05515,-0.80788,0.17271,0.78580,0.59673,-0.03683,0.38598,0.19312
214,199,0.58410,0.18349,-0.72261,0.49089,-0.83613,0.03636,-0.04373,-0.29286,-0.38564,-0.37868,-0.81849,0.40457,-0.43410,-0.35257,0.40320,-0.35957
215,199,1.16543,0.58891,-0.19146,-0.25122,-0.77466,-0.35001,-0.98045,-0.91682,-0.36208,-0.38400,0.01408,0.32503,1.07354,0.04752,-0.18192,-0.11465
216,199,-0.02920,-0.95061,-0.09099,0.72605,-0.81852,-0.39877,-0.54595,-0.36516,-0.55758,-0.72591,-0.75909,-0.15372,-0.53516,0.04367,-0.31368,-0.40055
217,199,0.40794,0.00518,0.17903,-0.32298,-0.47188,-0.41801,0.40132,-0.70706,-0.64239,-0.23613,-0.44171,0.77792,0.51122,-0.79009,-0.80664,-0.10523
218,199,-0.10875,-0.78552,0.18538,0.48188,-0.19212,-0.64903,0.61041,-0.18914,-0.58052,-0.39420,0.00530,0.45523,0.81806,0.05217,-0.66909,-0.07837
219,199,0.75101,-0.18739,-0.17871,-0.81024,0.05214,-0.85959,-0.09077,-0.25735,-0.67017,-0.70012,-0.98200,0.03015,1.15222,0.12466,-0.62058,-0.84651
220,199,-0.66857,-0.76324,0.86172,-0.38507,-0.79797,-0.43043,-1.07809,-0.55189,-0.64412,-0.97198,-0.46603,0.96160,-0.73066,-0.51483,-0.06211,0.06958
221,199,-0.64284,-0.32754,-0.71738,-0.39277,-0.44906,-0.81125,0.55116,-0.53831,-1.16142,-0.69773,-0.52307,0.03249,0.62768,0.96485,-0.50354,0.06143
222,199,-0.12106,-0.78883,0.17072,1.12764,-0.62677,-0.54835,0.14342,-0.50316,-0.92768,-0.58701,-0.24901,0.79977,0.23700,-0.89851,-0.22791,-0.93683
223,199,0.68747,-0.82033,0.57225,-0.17960,0.22194,-0.65263,-0.63466,-0.57678,-0.92247,-0.86835,0.15562,0.46627,0.89785,0.19126,-0.90359,-0.10140
224,198,0.60159,-0.15868,-0.31107,0.39139,-0.29351,-0.62472,-0.18603,-0.26544,-0.64714,-0.58403,0.57109,1.00262,0.24304,-0.16470,0.03842,0.11843
225,199,0.33009,-0.16030,0.05446,-0.11159,-0.85759,-0.57019,-0.02594,-0.34317,-0.87307,-0.96424,-0.90621,0.99860,1.04088,0.47668,0.76421,-1.06695
226,199,-0.13462,0.11339,-0.58061,-0.18195,-0.57357,-0.36345,-0.79521,0.04040,-0.35879,0.39842,-0.35555,1.09797,0.22858,-0.73911,0.22299,0.22460
227,199,0.88551,0.10017,0.54084,0.37758,-0.85246,-0.71745,-0.72944,-0.89654,-0.98401,-0.03510,-0.51902,1.01406,0.38150,0.02484,-0.56036,-0.52320
228,199,-0.97927,-0.70694,-0.09872,0.60454,-0.80974,-0.02638,0.50574,-0.24716,-0.75682,-0.25919,-0.75741,0.51305,0.29965,-0.01059,-0.90864,-0.75430
229,199,0.46804,0.05307,-0.12170,-0.23052,-0.27047,-0.13221,0.66936,0.04418,-0.91152,-0.36795,0.32470,0.54245,0.94473,-0.30304,-1.03265,-0.48657
230,199,0.67230,-0.66050,-0.23571,-0.86203,0.59335,-1.09779,-0.25509,-0.11380,-0.63126,-0.53953,0.41186,0.34093,0.26761,0.59301,-0.92497,0.06480
231,199,-0.95514,-1.01074,0.71014,1.35658,-0.93423,0.13418,0.04544,-0.23514,-0.69696,-1.14330,-0.14588,-0.02031,0.60566,-0.27699,0.06539,-0.78221
232,199,0.94688,-1.10750,-0.36822,-1.01697,-0.78373,-0.99152,0.59826,-0.17274,-0.36570,-1.18760,0.59838,0.86052,1.05939,-0.22744,0.54471,-0.49436
233,199,0.78314,-1.01642,-0.49362,-0.02087,-0.82574,0.05945,1.06742,-0.17162,-0.47334,0.27078,-0.49638,0.58252,0.13841,-0.69556,-0.57196,-0.17478
234,199,0.65100,-0.93813,-1.00019,0.55499,-0.55017,-0.63776,0.39936,-0.80294,-0.62752,-0.92589,-0.46201,0.96645,-0.36957,-0.59613,0.13530,0.04166
235,199,0.34197,0.46586,-0.39662,-0.10569,-0.58786,-0.78004,0.22953,-0.83227,-0.65372,-1.14195,1.27413,0.63103,-0.32189,0.05012,-0.68183,-0.64430
236,199,-0.11505,-0.82987,0.88103,1.00443,-0.10954,0.33658,0.05553,-0.71895,-1.37428,-0.59408,0.04362,0.57122,0.57976,-0.48587,0.04406,0.41315
237,198,-0.35552,-0.47379,0.56126,-0.44108,-0.52216,-0.99428,0.53571,-0.66712,-0.04889,-0.78793,-0.18362,0.94114,-0.78680,-0.73459,-1.21662,-0.26849
238,199,-0.35178,-0.66778,-0.45941,0.76427,-0.03469,-0.94197,-0.40072,-0.32336,-0.91141,-0.55801,-0.62120,0.29251,-0.09354,0.34395,-0.54493,-0.27137
239,199,1.10111,-0.56320,0.79829,-1.02516,-0.83215,-1.00156,-0.31910,-0.22694,-0.88581,-0.41490,-0.05969,0.88221,-0.65783,-0.03828,0.57344,-0.48240
240,199,0.50435,-0.76202,0.32829,-0.55874,-0.69626,-0.59511,0.57486,-0.29794,-1.02485,-0.42532,-0.11103,0.89674,0.57950,-0.24638,0.81693,-0.25616
241,198,0.99767,0.96938,-1.04225,0.50528,-0.58968,-0.15996,0.82892,-0.54920,-0.79176,-0.72363,-0.57614,0.34488,-0.26690,0.09479,0.54726,0.11929
242,199,0.98119,0.63106,0.15591,-0.94276,-0.67630,-0.58772,-0.64292,-0.18197,-0.95851,0.38546,-0.43768,1.21516,0.55464,-0.00235,-0.44873,-0.07542
243,199,-0.32533,-1.36695,-0.82336,1.12230,-0.52834,0.12723,-0.08176,-0.10115,-0.53466,-0.09697,-0.41578,0.99785,0.70469,-0.55286,-0.27851,-0.08387
244,199,-0.16547,1.14241,0.28120,-0.43737,-0.10588,-0.89508,-0.02306,-0.75601,-1.25207,-0.77359,0.64830,0.99733,-0.79521,0.10538,0.63176,-0.56584
245,199,0.69937,-0.89425,0.28653,-0.75464,-0.84243,-0.53009,-0.16736,0.11329,-0.87848,-0.56002,-0.89145,1.03950,-0.79459,-0.36562,-0.15822,-0.79441
246,199,0.29243,0.62177,-0.44342,-0.71417,-0.68454,-0.62592,-0.19498,-0.35771,-0.96559,-0.37904,-0.86441,0.49804,-0.17155,0.20042,0.58787,-0.38499
247,199,0.53429,-0.04106,-0.65708,1.15196,0.60134,-0.70245,-0.55968,-0.88000,-0.62647,-0.87233,-0.16664,0.56892,0.32306,-0.21048,-0.44632,-0.01450
248,199,0.24568,-0.88582,-0.26661,-0.26418,-0.71798,-1.00991,-0.34825,-0.92016,-0.98315,0.40476,0.67347,0.39133,0.44713,0.35478,-0.98509,-0.31163
249,198,0.85898,0.29439,0.01603,-0.51989,-0.29984,-0.88764,-0.06697,-0.84812,-1.04781,-0.28526,0.62984,0.91421,0.70871,0.49399,0.46367,-0.21395
250,199,1.12176,-0.05788,-0.04852,0.99852,-1.23236,-0.49648,-0.59038,-0.41203,-0.98979,0.91131,-0.41511,1.17679,0.56516,-0.67898,-0.65154,-0.54801
251,199,-0.64276,0.01564,-0.62512,0.27863,-0.68725,-0.99378,-0.53072,-0.20044,-0.21449,-0.70809,0.64392,0.54742,0.77857,-0.78217,-0.60893,-0.35755
252,198,0.72584,-0.31195,-0.41469,0.25609,-0.56659,-0.75280,-0.38257,-0.83900,-0.30239,-1.19806,-0.44143,0.75750,0.31690,-0.70676,0.26701,0.46066
253,199,0.63778,-0.60272,0.06647,0.77529,-0.00453,-0.86003,0.64040,-0.36970,-1.06380,-1.02301,0.16469,0.71613,0.86565,-0.84484,-0.52670,0.26168
254,198,1.06723,-0.60149,0.40931,-0.98114,-1.17031,-0.53141,-0.51236,-1.01367,-0.88305,-0.00046,-0.69943,1.03970,0.33117,-0.84850,-0.83186,0.19086
255,198,-0.06613,-0.86682,0.33939,0.51226,-0.85688,-0.96871,-0.76013,-0.28488,-0.16339,1.07505,-0.44831,0.83943,-0.78405,-0.24475,-0.42053,-0.78716
256,199,0.03771,0.06504,-0.18132,-0.30063,-0.96413,-0.85803,0.44152,-0.08480,-0.70561,0.13027,-1.01062,0.43931,0.54904,0.21510,-0.11054,-0.66247
257,199,0.13396,-0.41260,-0.48644,0.12908,-0.72588,-0.18293,1.26183,-0.13019,-0.57111,-0.82447,-0.50640,0.32312,-0.56587,-0.77023,0.20421,-0.19226
258,198,-0.58509,-0.41218,-0.79314,-0.23937,-0.92759,-0.11966,0.80473,0.16654,-0.84868,0.17062,-0.23121,0.71265,-0.93103,-0.48767,-0.45638,-0.10358
259,199,1.01536,-0.94713,0.89470,0.57285,-0.44060,-0.87262,0.03280,-0.63728,-0.20575,-0.74459,0.68792,0.49482,-0.95964,-0.56216,-0.73499,0.06207
260,199,-0.20161,-0.30766,-1.09775,0.74058,0.02460,-0.03522,-0.30249,-0.62439,-1.04472,0.03805,-0.18537,0.50893,-0.09041,-0.17270,-0.67396,0.22625
261,199,0.70393,0.60406,0.56725,-0.50922,-1.12565,-0.61500,0.16115,-0.56792,-0.94161,0.00749,-0.97528,0.45217,-0.57334,0.48282,-0.80507,-0.94299
262,199,0.24738,-0.76132,0.77475,-0.84237,-0.16666,-0.93071,0.05104,-0.31815,-0.95600,0.30207,-0.42805,0.74276,-0.03623,0.64297,0.55650,-0.12123
263,199,-0.70675,-0.53538,-1.09552,0.94391,-0.12617,-0.37681,-0.13509,-0.58768,-0.66656,-0.78659,-0.05246,0.12046,0.82957,-0.20281,0.33815,0.21957
264,199,0.93399,-0.37380,-0.02450,0.18370,0.53896,-0.65771,-0.10313,0.03837,-1.24684,-0.58185,-0.22436,0.28957,-0.12462,-0.26563,0.43331,-0.64800
265,199,-0.19915,-0.44087,-0.14232,0.25451,0.63534,-0.91848,0.96581,-0.11826,-0.77155,-0.83219,0.65163,0.30121,-0.04446,-0.55464,-0.68139,-1.09813
266,199,-0.06203,-0.43145,-0.29339,-0.07323,-0.14978,-0.54951,-0.97350,-0.25094,-1.11045,-1.06357,-0.70502,0.63496,0.58812,-0.85227,-0.63382,0.40441
267,199,-0.06989,-0.37341,0.76327,-0.44493,-0.25528,-0.70371,0.25154,0.08994,-0.76958,-0.70277,-0.52557,0.63695,-0.04089,-0.39797,0.02579,-0.34168
268,199,0.98519,-0.76629,0.01750,-0.60137,-0.45658,-0.48205,-1.02390,-0.67157,-1.10877,-0.96814,-0.41422,0.30713,-0.73208,0.51863,-0.06286,0.01980
269,199,1.00095,-0.75165,-0.92366,0.48696,-0.35458,-0.46419,-0.59563,-0.81920,-0.87219,-0.01969,0.43832,0.53795,0.17457,-0.26569,-0.21508,-0.38484
270,199,0.52688,-0.34380,-0.25494,0.02197,-0.05173,-1.06392,-0.87571,-0.13978,-0.85092,-0.22571,0.33035,0.95033,-0.72223,-0.10499,0.08811,-0.15347
271,198,0.64312,-0.43729,-0.35508,0.52197,-0.03269,-0.88737,0.46975,-1.01051,-0.69059,-0.10562,0.70508,1.10681,-0.51773,0.11946,0.58831,0.59533
272,198,0.04501,-0.32103,-0.31431,0.65918,-0.33741,-0.04693,0.15529,-0.75818,-0.96953,-0.32137,0.07361,0.94915,0.71655,-0.36504,-0.09761,0.28861
273,199,1.05785,-0.11871,0.40076,0.58936,0.18061,-0.60841,-0.09892,-0.35231,-0.61139,-1.03950,-0.42117,0.41415,0.16499,-0.34862,-0.49308,-0.06953
274,198,-0.44009,0.80081,0.54024,-0.07877,-0.93528,-0.55452,-0.64953,-0.39509,-0.39348,-0.39824,0.59105,0.70228,0.80951,-0.09083,-0.24782,-0.05974
275,198,0.67896,-0.21016,-0.72198,-0.68471,-0.82934,-1.19767,0.67979,-1.17722,-0.65117,0.02595,-0.80736,0.82754,0.85882,0.04346,-0.62323,0.54117
276,198,0.62235,-0.80257,0.69832,0.98816,-0.72070,-0.40077,-0.83163,-0.24866,-0.22570,-0.85961,-1.10316,0.58642,0.22261,-0.59670,0.33579,0.09209
277,199,-0.11355,-0.27334,-0.82701,0.04593,-0.67080,-0.20961,0.72182,0.02443,-0.65849,-0.61692,-0.94558,0.47100,0.59479,-0.16337,0.01906,-0.19157
278,198,0.59592,-0.30992,-0.09553,0.28553,-0.95048,-0.96536,1.04385,-0.18466,-0.45319,-0.58353,-0.58562,0.81413,-0.26599,-0.92843,-0.39526,-0.07883
279,199,-0.78089,0.28831,-0.87282,0.22150,-0.52603,-0.01929,0.15502,-0.12949,-0.53534,-0.67202,-0.07625,0.64884,0.21056,-0.13575,-0.11980,-0.39154
280,199,0.84660,-0.83563,0.06468,0.81109,-0.34503,-0.98331,-0.55445,-0.26923,-0.54719,0.57281,-1.19739,0.35298,0.98785,-0.84302,-1.20297,-0.10484
281,199,0.95670,-0.43200,-0.24684,0.08184,0.45175,-1.02802,0.48715,-0.40943,-0.59238,-0.91745,-1.01950,1.03799,0.17156,-0.08589,-0.17529,-0.54385
282,199,0.66289,-0.71611,-0.89525,0.20049,-0.06994,-0.58086,0.27679,-0.04022,-0.42573,0.27177,-0.66618,0.10124,0.58849,-0.39667,0.12272,-0.18003
283,199,0.63057,-0.54653,-0.65861,1.06308,-0.84327,-0.83573,-0.89474,-0.77118,-0.33607,0.71641,-1.17010,0.17209,-0.87568,0.06494,-1.06352,-0.14978
284,199,0.24929,0.55109,0.11329,0.49840,-1.07247,-0.19248,0.60493,-0.76392,-0.54068,-0.30659,-0.14475,0.63806,0.67068,0.00508,0.77213,-0.37906
285,199,-0.82581,0.39064,-0.35734,0.16130,-0.05155,-0.90207,-0.63157,-0.61226,-0.72190,-0.83905,0.84777,0.66033,0.70636,-0.49213,-0.57717,0.18505
286,199,-0.35661,-0.46344,1.02546,0.33663,0.35251,-0.77548,0.31200,-0.22340,-0.33955,-0.63842,0.68904,0.66662,0.29863,-0.37694,-0.45100,0.17012
287,199,0.91689,-0.01138,1.13168,0.41706,-0.88892,-0.98905,-0.74780,-0.25107,-0.98656,-0.01670,0.15441,1.00827,0.39709,-0.78633,-0.04243,-0.65465
288,199,0.60970,-0.31173,-0.48014,-0.00091,0.36345,-0.89575,-0.30334,-0.60294,-1.05682,0.00424,-0.43635,0.10667,-0.31778,-0.23256,-0.84949,-0.80376
289,199,0.95358,-0.77138,0.68696,0.73925,-0.67942,-0.51768,-0.07445,-0.45742,-0.51414,-1.05475,0.51965,0.29080,-0.91589,0.04006,0.97527,-0.53099
290,199,-1.16521,1.13643,-0.37391,0.12387,-0.96629,0.24535,-0.95288,-0.02777,-0.69849,-0.28817,-0.44608,0.47403,-0.37433,0.09267,-0.98331,-0.39661
291,199,-0.65862,-1.31679,-0.26423,0.58794,-0.21666,-0.73068,0.76204,-0.49064,-0.75799,-0.62261,-0.55196,0.01943,1.06041,-0.03484,0.64007,-0.76688
292,199,-0.11203,-0.30704,-0.78534,0.59054,-0.57228,-0.63993,-0.10824,-0.36032,-0.40498,-0.32473,-1.17422,0.38261,-0.62621,-0.46576,-0.86596,-0.24782
293,198,-0.27619,-0.86658,0.71684,0.17795,-0.76246,-0.45907,-0.84963,-0.22161,-0.37413,-0.24576,-0.49561,0.47172,0.76614,-0.52377,0.29157,-0.14515
294,198,0.65848,0.09279,-0.56601,-0.89391,-0.96047,-0.11352,-0.37792,-0.17973,-0.92876,-0.20361,0.58727,0.56667,-0.12411,0.67993,-0.90841,0.00134
295,199,-0.27393,-0.80022,0.71191,0.71132,-0.94954,-0.57282,0.61802,-0.18038,-0.81859,-0.00144,-0.66030,0.75178,1.06714,-0.50182,0.53988,-0.51222
296,198,0.77978,0.23349,0.54599,0.50187,0.27353,-0.24195,0.49748,-0.73544,-0.90678,-0.02578,0.85351,0.82699,-0.07685,0.36989,-0.36814,-0.95424
297,199,0.75802,-1.21001,-0.37570,0.31633,-0.19959,-0.96400,-0.05867,-0.00657,-0.85450,-0.90852,-0.03393,0.60966,-0.70277,-0.78770,0.17056,-1.04908
298,199,0.87893,-0.96935,-0.14409,1.07707,-0.70144,-0.95346,-0.04636,-0.85148,-0.49923,0.03638,-0.44223,0.39808,-0.97188,0.40009,-0.42603,-0.15804
299,199,-0.30028,-0.72593,-0.41276,-0.07037,0.22699,-1.23694,0.56802,-0.09351,-0.58913,-0.21219,0.45127,0.93153,0.58245,0.10926,0.56946,-0.06085
300,199,-0.47381,-0.61704,0.91246,0.89753,-0.33433,-0.71088,0.36003,-0.50358,-0.57111,-0.00763,-1.01116,0.52511,0.44532,-0.20568,-0.85600,-0.00679
301,199,-0.37515,0.25335,-0.35549,0.71923,-0.31209,0.06811,-0.15475,-0.27880,-0.99546,0.13175,0.23971,0.35658,-0.72086,-0.38291,-0.35403,-0.01516
302,199,-0.88754,-0.52911,0.19363,0.19259,-0.93922,-1.02830,0.35874,0.21855,-0.86483,-0.94592,-0.56215,0.89779,-0.60890,-0.87254,-0.35121,-0.20098
303,198,-0.66376,0.13185,0.61724,-0.04962,-0.63440,-0.76061,-0.71445,-0.54053,-0.82075,-0.98058,1.16899,0.90476,-0.83518,0.68731,-0.04574,-0.41630
304,199,-1.31436,-0.38318,-0.31448,-0.36559,-0.19477,-0.63285,1.09462,-0.01613,-1.09136,-0.98526,-1.06490,0.91041,0.88623,0.77783,-0.38207,-0.18091
305,199,-0.76594,-0.29472,-0.62737,0.04975,-0.52402,-0.61014,-1.18781,-0.30962,-1.13116,-1.10138,0.45401,0.35051,0.66501,0.69143,0.39377,0.09779
306,199,-0.13133,-0.28717,-0.04721,1.22513,-0.50747,-0.01913,0.36073,-0.43651,-0.93727,-0.92207,0.28655,0.60854,-0.14027,-0.30714,0.22900,0.09083
307,198,-0.43353,0.37664,0.96227,0.95634,-0.23558,-0.30897,-0.00954,-0.18730,-1.07616,-0.23139,-0.73558,0.46255,-0.00175,0.01520,0.51921,-0.77277
308,199,-0.16468,0.27084,0.80490,0.72553,-0.42211,-0.25138,0.48750,-0.15491,-0.38482,-0.84390,-0.94957,0.71795,0.55105,-0.24609,-0.56133,-0.67996
309,198,-0.03150,0.29234,-0.41346,0.44426,-0.50537,-0.37432,-0.50513,-0.30910,-0.74886,-0.75683,-0.76480,0.51629,-0.58308,-0.06812,-0.61457,0.21149
310,199,0.97932,-0.88959,1.08166,-1.01161,-0.95443,0.02371,-0.87997,-0.51706,-0.84138,0.37581,0.41614,0.66200,-0.65103,0.27028,-0.18379,-0.18738
311,199,0.53711,-0.10399,-0.60505,1.22153,-0.87467,-0.21662,-0.78890,-0.81031,-0.72756,0.03552,-0.79063,0.74720,-0.84537,-0.07819,0.12418,-0.85736
312,199,-0.55000,0.14357,-0.26155,0.84352,-0.65866,-0.75249,-0.43846,-0.21743,-0.76096,0.37970,0.06262,0.75593,0.94523,0.14765,-0.85341,-0.81727
313,199,0.21995,-1.02476,0.56227,0.74140,-0.31095,-0.07947,0.32508,-0.76847,-0.93803,0.87002,0.03967,0.87451,-1.11360,-0.19766,0.90642,-0.29913
314,199,0.99691,0.18109,-0.63677,-0.19976,-0.91299,-0.47321,0.63622,-0.49321,-0.90223,-0.62546,-0.03953,0.78696,-0.56465,0.11503,0.09686,-0.25418
315,199,-0.30734,-0.31048,0.15751,0.13619,-0.63131,-0.50411,-0.21213,-0.16631,-0.67001,0.51263,-0.14342,0.87305,0.87685,-0.09022,-0.27557,-0.29641
316,199,-0.33406,0.45174,-0.70101,-0.71205,-0.67553,-0.49690,0.13239,0.16008,-0.73015,0.48836,-0.80740,0.78211,-1.03746,-0.56294,-0.50898,-0.38654
317,196,-0.80252,-0.34470,0.81975,0.21026,0.00230,-0.38109,-0.43239,-0.11573,-0.54410,-0.61139,0.43477,0.90197,0.04207,-0.39480,-0.83825,0.28861
318,199,-0.42335,-0.83479,0.72712,-0.87915,-0.16751,-0.42697,-0.28306,-0.34436,-1.04732,-0.77942,0.56331,0.18716,-0.88643,0.84297,0.27558,-0.71836
319,199,0.34180,-0.23336,0.50023,-0.01280,-0.18584,-1.06183,0.40267,-0.49850,-0.78340,-0.18934,0.47334,0.71736,0.88102,0.13937,-0.28366,0.18095
320,199,0.22420,-0.13457,-0.16954,0.53765,-0.07576,-0.95729,0.63541,-0.32494,-0.35306,0.08775,-0.60999,0.54018,0.05900,-0.37527,0.79954,-0.16836
321,199,-0.09695,0.44874,0.95219,0.92758,-0.95837,-0.82750,-0.03920,-0.47550,-0.84349,-0.82659,-0.60572,1.05940,1.12834,-0.21558,-0.52611,-0.34621
322,199,-0.23624,-0.90243,-0.42431,-0.54025,-0.35190,-0.52199,0.32486,-0.15335,-0.64142,-0.35163,-0.59939,0.07493,-0.20330,0.17974,-0.71097,-0.00863
323,199,-0.52516,-0.54590,-0.68932,-0.68334,-0.12274,-1.01016,0.44989,0.08771,-0.18005,-0.00858,-0.01307,0.65589,0.88407,-0.16365,0.02521,-0.02393
324,199,-0.02306,0.42220,-0.34052,-0.93739,-0.40214,-0.26710,-0.96828,-0.16859,-0.69360,-0.70139,0.88080,0.54007,0.25743,0.11337,-0.58174,-0.30983
325,199,-0.68675,-0.15710,-0.90535,1.13664,-0.50385,0.49372,0.59420,-0.11061,-0.59431,0.70332,-0.38185,0.03478,0.28985,0.10350,-0.23565,-0.28857
326,199,-0.21083,0.66576,-0.76483,-0.08760,-0.61398,-0.38152,-0.84633,-0.42944,-1.26436,-0.62812,-0.34472,0.32288,1.28362,-0.12070,-0.10782,-0.63351
327,199,-0.58988,-0.38522,-0.91303,-0.89844,-0.92012,-1.32408,0.03681,-0.58839,-0.94675,-0.22057,-0.44751,0.99611,0.91316,-0.28392,-0.77472,0.08172
328,196,0.15866,-1.11266,-0.59847,0.53261,0.50766,-0.38899,1.05256,-0.91818,-0.06096,-0.46504,-0.20682,0.62182,0.29731,-0.95949,-0.14811,0.87432
329,198,-0.06736,-0.14282,0.09642,-0.24537,-0.40881,0.03680,-0.72366,-0.72430,-0.91475,0.79651,-0.83434,0.66574,0.00714,-0.07532,-0.61085,-0.73546
330,199,0.91658,0.61329,-0.37939,0.12097,-0.98491,-1.06950,-0.54116,-0.88378,-0.58554,-0.80093,0.42310,0.69493,-1.05809,0.43164,0.92571,-0.47752
331,199,0.58787,0.31189,-0.33229,-0.32708,0.88613,-0.79901,0.65060,-0.37397,-0.76554,-0.62275,0.70654,0.41945,0.28171,0.03135,-0.60506,0.08523
332,199,0.92317,-0.04000,-0.88088,-1.29993,-0.31306,-0.37452,0.17682,-0.04087,-0.83807,-0.69910,-0.72981,0.31853,0.82755,0.03709,0.63774,-0.53148
333,199,-0.66389,-0.25961,-0.83242,1.36902,-0.70140,-1.03412,0.96796,-0.44400,-0.89337,0.85551,-0.58467,0.57987,0.01914,0.01314,0.05646,0.17468
334,199,0.71644,-0.70763,0.65021,-0.06494,-0.66356,-0.79974,-0.97307,-0.64836,-1.18055,-1.09807,-0.14058,0.24940,-0.70433,-0.26486,-0.41862,-0.84460
335,199,-0.18986,-0.78325,-1.08738,0.20592,-0.86626,-0.02352,-0.09226,-0.20392,-0.85558,-0.25688,0.28602,0.60515,-0.57135,0.11271,-0.25916,-0.41902
336,199,-1.00766,0.48496,-0.78771,0.91907,-0.42089,-0.19608,-0.61328,-0.15183,-0.92196,0.11288,0.10107,0.62027,0.45070,-0.09899,0.54448,-0.42793
337,199,0.59583,-0.43086,0.31474,0.39947,-0.70595,-0.37088,0.05244,-1.09584,-0.84566,-0.68990,0.38122,0.18415,-0.02776,0.32463,-0.05750,-0.23346
338,199,-0.67785,-0.84509,-0.80591,0.97075,-0.34507,-0.79685,0.10006,-0.42731,-0.84522,0.04787,-0.11099,0.93028,-0.07578,-0.45868,-1.36980,-0.09040
339,199,-0.87297,0.34698,0.55202,-0.18927,-0.70703,0.04777,0.40372,-0.19937,-0.73579,-0.47837,-0.17259,0.99380,-0.94345,-0.23801,-0.99738,-0.18100
340,199,-0.40820,-0.01108,-0.60880,-0.54939,-0.19260,-0.90505,1.09992,-0.80763,-1.01441,-0.97558,0.53602,0.99918,-0.01215,-0.19004,-0.68853,0.12569
341,199,-0.18244,-0.31860,-0.15559,0.65690,0.48746,-1.06281,0.03822,-0.75766,-0.37297,-0.99638,0.32444,0.34999,-0.75643,0.27554,-0.70026,-0.10671
342,199,-0.16597,-1.12817,-0.52663,0.87154,-0.85515,-0.06388,-0.93197,-0.47431,-0.93211,-0.05757,0.75142,0.41384,-0.21914,-0.41814,-0.80596,-0.07765
343,199,0.27127,0.42722,-0.46647,0.58182,-0.21299,-0.06251,0.58945,-0.20145,-0.55675,-0.10945,-0.72503,0.28216,-0.64228,-0.16227,0.04033,-0.32528
344,199,0.50119,-1.06218,-0.69372,-0.02849,-0.69208,-0.11345,-0.56779,-0.25977,-0.62649,-0.17938,-0.30338,0.12376,-0.09513,0.25632,-1.03201,-0.87153
345,199,-0.04123,-0.77358,-0.11625,0.66705,0.23603,-0.27383,-0.94455,-0.61557,-0.82004,-0.93904,-0.25882,0.06162,0.53756,-0.36006,-0.35560,-0.29072
346,199,-0.26576,-0.94921,-0.67585,-0.25035,0.71491,-0.31709,-0.76847,-0.01021,-0.90796,0.19011,0.45992,0.69191,0.24524,-0.08023,0.16021,-0.43656
347,199,0.25771,0.00744,0.32951,0.93214,-0.63897,-0.32337,-0.03411,-0.61663,-0.94257,-0.64577,0.19407,0.21381,0.18810,-0.07801,-0.43977,-0.53153
348,199,0.24075,0.02695,-0.58836,0.42544,-1.03175,-0.79750,-0.66106,-0.35367,-0.38849,-0.20241,-0.10515,0.15988,0.63252,-0.02997,-0.01723,-0.08505
349,199,-0.38056,-0.35631,0.06966,0.64626,-0.69284,-0.55380,-0.52084,-0.45094,-1.09741,-0.85376,-0.66661,0.23149,-0.60933,-0.39189,-0.97186,0.06288
350,198,0.64609,-1.02913,-1.03885,-0.61946,-1.01821,-0.69394,-0.49005,-0.21212,-0.59911,0.14081,-0.40531,0.87682,0.89797,-1.03693,-0.40299,-0.86057
351,199,-0.02551,-0.43071,-1.07797,-0.65102,-1.03433,-1.03150,-0.69328,-0.75948,-0.24223,-1.02133,-1.02266,0.29750,0.69243,0.36231,-0.39945,0.10664
352,199,0.08006,0.28643,-0.21915,0.30129,-0.57811,0.01030,0.88828,-0.57061,-1.03709,0.04820,0.85582,0.34788,-0.07608,0.25846,-0.96095,-0.18879
353,199,0.02732,-0.81415,-0.62711,0.29055,-0.04111,-0.76533,0.27884,-0.79197,-1.03984,0.18969,-0.18525,0.67244,0.59897,-0.21435,0.10975,-0.65871
354,199,0.52491,-0.49132,-0.70188,-1.08506,-0.81008,-0.25229,0.55334,0.08829,-0.54778,-0.58602,0.64222,0.28077,1.26100,-0.49170,-0.85179,0.10748
355,199,-0.40228,-0.72847,0.93878,1.03774,0.26937,-0.86428,-0.64698,-0.95594,-1.10072,-0.30281,-1.11281,0.80727,0.37743,-0.05396,1.02549,0.41324
356,199,0.36745,0.57725,0.76947,0.32260,-0.48005,-0.84580,0.01564,-0.26703,-0.65027,-0.16494,-0.95307,0.76393,0.00425,-0.22848,-0.40046,-0.72371
357,199,0.63094,-0.00017,0.49241,0.75270,-0.97535,-0.50241,0.26093,-0.33216,-0.78419,0.00233,-0.29559,0.32966,0.14335,0.21699,-0.61030,-0.61602
358,199,-0.52863,-0.75370,0.22164,0.82663,-0.01297,-0.54012,0.02648,-1.03075,-1.02089,-0.75414,0.10477,0.67371,-0.52207,-0.55726,-0.37689,-0.39586
359,199,-0.12639,0.18956,-0.78324,-0.61526,-0.57454,-0.70678,-0.46003,-0.07508,-0.76332,0.31780,0.16849,0.47258,-0.46252,0.33178,0.04837,-0.55531
360,199,0.79694,0.94230,0.43376,-0.27439,0.26802,-0.44701,0.25299,-0.64664,-1.16342,-0.59478,0.05208,0.61048,0.03035,0.26307,0.82964,-0.89753
361,199,0.85241,-0.14354,-0.78232,-0.19328,-0.76743,-0.72325,0.93064,-0.62249,-0.99633,-1.01309,-0.48907,0.12063,-0.39761,0.03104,-0.55950,-0.56416
362,199,0.58812,-0.86686,0.53997,-0.16574,-0.30075,-0.13839,0.05020,0.11064,-1.27409,0.08365,-0.41938,0.34722,-0.53772,-0.74245,-0.40907,-1.05420
363,199,-0.45876,-0.33610,0.80223,-0.34221,-0.70893,-0.57318,-0.52022,0.14768,-0.84320,-0.24630,0.25148,0.75574,0.06883,0.03312,0.38712,0.00575
364,199,0.24387,-0.52497,0.81693,0.84082,-0.92617,-0.85676,0.23025,-0.32881,0.02519,-0.66282,-0.30687,0.59895,-0.19834,-0.66538,-0.96671,-0.18670
365,199,0.11059,0.86754,-0.59834,-0.31540,-0.77009,-0.30582,0.30481,-0.16631,-0.65061,-0.42261,0.65004,1.04461,0.63495,-0.39310,-0.79002,0.09407
366,199,-0.42036,-0.65913,-0.74241,0.93441,-0.40371,-0.60314,0.61374,-0.45747,-0.13383,-0.74861,0.79278,-0.08667,0.20262,-0.12938,-0.14746,-0.22101
367,199,0.12516,0.41268,0.13855,-0.28719,-0.88953,-0.06642,0.61198,-0.91550,-1.14012,-0.76852,-0.84909,0.22674,-0.54815,0.40550,0.01541,-0.20000
368,198,-0.76240,-0.80390,-0.23883,-0.51079,0.01730,-0.21934,-0.29813,-0.81559,-1.01900,0.22513,0.61710,1.07782,-0.38572,0.10826,-0.70315,-0.51091
369,198,-0.54330,0.39862,0.27019,-0.36156,-1.06731,-0.95759,-0.82615,-0.89321,-0.13251,-0.65298,0.76389,1.06982,-0.57116,-0.12908,-0.47386,0.06417
370,199,0.03111,-0.55691,0.26548,0.74489,-0.79790,-0.01643,-0.37210,-0.40164,-0.67988,-0.88492,-0.14931,0.18778,-0.09695,-0.15836,-0.53689,-0.37246
371,199,-0.87454,-1.20459,0.58823,-0.15759,-0.65770,-0.96574,-0.73526,-0.45639,-0.48082,0.03239,-0.77026,1.10336,-0.10429,0.27407,-0.01471,0.22775
372,198,-0.09352,-1.08459,0.85814,0.84358,-0.84933,-0.22160,-0.49281,-0.71691,-0.68725,-0.47888,1.00568,0.60436,0.27097,-0.33697,1.02598,-0.70137
373,199,-0.26400,-0.47123,0.33961,-0.56091,0.30903,-0.38224,-0.66699,-1.15331,-1.01778,-0.51760,0.29425,0.88693,0.98515,-0.34799,-0.70252,0.44557
374,199,-0.25563,-0.15813,1.03395,1.04720,0.25011,-0.92311,0.40812,-0.15583,-0.55993,-0.83627,0.20989,0.79460,0.38809,-0.27555,0.89191,-0.88509
375,199,-0.87490,0.73816,0.67060,0.54837,0.72419,-1.00943,-0.66051,-0.02581,-0.95764,-0.55901,-1.02928,0.49159,-0.49547,0.02143,-0.13628,-0.18465
376,199,1.05387,0.41075,0.07292,0.31919,-0.42575,-0.84758,-0.36204,-0.34785,-0.41839,-0.59805,-0.66300,0.24315,-0.03696,-0.22744,-0.68751,-0.20056
377,199,0.75611,-0.01572,0.75088,0.62253,-0.92851,0.06632,0.12820,-0.61793,-0.79099,-0.52488,0.00304,0.65984,-0.90679,-0.05720,0.06688,0.04998
378,199,0.19461,-0.54505,-0.08882,0.65609,0.44584,0.16034,0.33016,-0.01097,-0.82148,-0.02005,0.43464,0.88388,-0.02332,-0.66459,-0.54841,0.06269
379,199,0.30677,-0.63956,-0.88369,-0.49670,-1.23206,-0.53422,0.06494,-0.32556,-0.76991,-1.08659,-0.68465,0.27196,0.17510,-0.19637,-0.57424,-0.33957
380,199,0.00281,0.01642,-0.15526,0.30480,-0.37822,-0.88669,0.84024,-0.57339,-0.34050,-0.78636,-0.02650,0.94656,0.86902,-0.25726,-0.45561,0.07081
381,199,-0.11558,-0.87589,-0.80843,0.53502,-1.00544,0.13192,-0.32200,-0.07151,-0.99474,-0.61340,-0.30089,0.24882,-0.56362,-0.98833,-0.56254,-0.89487
382,199,0.43427,-0.52544,-0.26331,0.53929,0.62492,-1.17636,-0.30435,-0.08181,-0.96608,0.90285,-0.59630,0.72689,-0.02051,0.47696,-0.41822,-0.23428
383,199,0.26877,-0.50618,0.33418,0.82463,-1.01437,-0.15721,-0.10304,-0.98420,-0.20052,-0.34908,0.07602,0.40831,-1.02215,-0.02461,0.15064,-0.05229
384,199,0.44012,-0.36674,-0.05163,0.53088,-0.70333,-0.80128,-0.37761,-0.17378,-1.10883,-0.41814,-0.34026,0.81389,-0.70149,-0.06168,0.55882,-0.52435
385,198,0.32455,0.30987,-0.17868,0.62587,-0.69241,-0.70369,-0.73168,-0.66525,-0.80938,0.69538,0.25411,1.01902,0.39041,0.27989,-0.48828,0.42796
386,199,-0.05849,-0.58267,0.43951,0.90303,-1.10944,0.76909,0.38005,-0.42245,-0.76283,-0.80593,-0.75190,0.46373,-0.35263,-0.34300,-0.31015,0.27730
387,199,-0.36308,0.41260,-0.71935,-0.64560,-0.01538,-0.38486,0.00242,-0.18376,-1.18186,-0.38052,0.97975,0.33897,0.70510,0.45542,-0.16218,-0.20949
388,199,0.46315,0.02165,0.14681,-0.95154,-0.34428,-0.94699,0.41345,-0.44696,0.11722,-0.66434,-1.03080,0.29382,-0.23634,-0.79951,0.17228,-0.72631
389,199,0.07563,-0.30309,-0.55582,0.67480,-0.16474,-0.21747,-0.30455,-0.40163,-0.71648,0.60260,0.66783,0.48247,0.78186,0.00075,-0.11836,-0.45342
390,199,-0.89898,-0.42337,-0.40483,1.06084,-0.81099,0.05569,0.08857,-0.08433,-0.75396,0.29755,-0.20678,0.19131,-0.92055,-0.11521,-0.07670,-0.42254
391,199,0.17298,-0.02225,-0.52280,0.88699,-1.06118,0.39066,0.62868,-0.33406,-0.72749,-0.68126,-0.07770,0.35849,0.88478,-0.25766,-0.50787,-0.25847
392,199,0.01457,0.98538,-0.11570,0.41201,0.16997,-0.89108,0.61430,-0.54022,-0.81925,-0.68400,-0.00362,0.99937,0.48271,0.28378,-1.00597,0.21918
393,198,-0.11046,-0.55646,0.72869,0.16619,-0.57191,-0.93934,-0.67959,-1.07793,-0.75322,0.11045,0.78626,0.79070,-0.84493,0.16342,-0.46561,0.50800
394,199,-0.54151,-0.83006,0.53366,-0.58671,0.15031,-1.09850,-0.35352,-0.54726,-0.60778,-0.91476,-0.87444,0.74509,-0.27609,0.17411,0.20240,0.05804
395,199,-0.91044,0.03909,0.50581,-0.31923,-0.44159,-0.89592,0.28879,-0.38040,-1.08262,-0.59625,-0.26266,0.32725,0.03752,0.65302,-0.06975,0.07846
396,199,0.43337,-0.72706,-0.54475,-0.29425,-0.32704,-0.06491,-0.97752,-0.19340,-0.66894,-0.90228,0.15308,-0.02220,1.03235,0.06608,-0.74799,-0.16504
397,199,-0.06778,-0.52477,0.68853,-0.98115,-0.85714,-0.42663,0.87909,-0.52629,-1.17995,0.16824,-1.14012,0.96723,0.35640,0.69231,-0.38214,0.19599
398,199,0.40020,-0.19595,-0.18894,-0.51131,-0.89327,0.30974,0.52962,-0.45575,-0.88490,-0.52372,0.45513,0.59515,-0.07341,-0.06256,0.37526,0.02142
399,199,0.34043,-0.76882,0.29661,-0.87336,-0.78479,-0.64676,-0.74513,-0.19266,-0.71932,-0.76951,-1.03144,0.34126,-0.05720,0.36391,-0.35029,-0.12543
400,199,0.75327,0.55334,-0.79390,0.72626,0.18545,-1.02955,-0.94527,-0.65844,-0.94478,0.96810,-0.10032,0.84953,0.38030,-0.13832,0.13114,-0.10287
401,199,-0.65790,-0.25637,-0.83201,-0.16576,-0.12371,-0.35283,-0.92611,0.11178,-0.76582,-0.52485,-0.70459,0.87399,-0.18487,-0.32989,1.09222,0.00019
402,199,-0.83188,0.18419,0.70797,-0.33511,-0.35613,-0.49213,-0.38548,0.15773,-0.67489,-0.79543,-0.95397,0.32427,0.78273,-0.00793,-0.72182,0.01477
403,199,-0.01087,-0.82525,0.94771,0.87651,0.27820,-0.88196,-0.06096,-0.46869,-0.91307,-0.46327,-0.64959,0.57007,0.31636,-0.77778,-0.24274,0.35390
404,199,0.44240,-0.73575,-0.48437,0.29032,-0.21152,-1.07270,-0.04997,0.00538,-0.53619,0.31814,0.14676,0.87295,0.11982,-0.75712,-0.69446,0.10239
405,199,1.00499,0.75446,-0.68197,-0.57058,-0.82651,-0.66802,-0.02720,-0.15502,-0.84983,-0.85644,-0.57147,-0.04082,0.96274,-0.12544,-1.21700,-0.88937
406,199,0.09443,-0.73612,-0.44542,-0.14349,-0.70697,-0.38857,-0.41968,-0.70943,-1.08542,-0.23045,-0.87143,0.63254,-0.58044,0.37612,-0.42106,-0.23802
407,198,-0.59819,-0.13879,0.92457,0.13869,0.61045,-0.70394,0.50145,-0.13602,-0.49730,-0.95803,0.74706,0.79587,0.01160,-0.10115,-0.70235,0.35550
408,199,0.98876,-0.19204,-0.70936,0.05122,-0.80768,-1.04263,0.52585,-0.64569,-0.63641,-0.19589,0.29185,0.36504,-0.52198,0.09135,-0.53219,-0.29922
409,199,-0.75025,-1.01696,-1.10393,-0.93736,-0.29477,-0.62040,0.61788,-0.04219,-0.63103,0.38918,-0.52427,0.29205,0.78251,0.03368,0.36709,-0.30169
410,199,0.67537,-0.85634,-0.39740,-0.94241,-0.22713,-0.59536,0.02409,-0.15941,-0.89356,-0.48358,0.76134,0.42735,0.27585,0.27608,-0.80283,0.02232
411,14,-0.04542,-0.06083,0.76799,-0.00295,0.57563,0.82307,-0.12419,-0.25062,0.56636,1.06014,0.56899,-0.15702,0.60527,-0.89885,0.15281,0.78728
412,199,-0.73768,-0.00616,-0.49223,0.66034,0.81307,-0.86768,-0.66584,-0.04533,-1.13786,0.16574,-1.12790,0.40439,0.16244,-0.02930,-0.77500,-0.02945
413,198,0.73341,0.43008,-0.44169,0.67765,-0.97289,0.28877,-0.25988,-0.24214,-0.76945,-1.09040,-0.80730,0.45455,0.76709,-0.43036,-0.04749,0.35147
414,199,0.45468,-0.75889,-0.85008,0.66189,-0.83473,0.05750,-0.65990,-0.17867,-0.96660,-0.87884,0.92578,0.96800,-0.54314,-0.73494,0.50520,-0.60708
415,199,0.94787,0.54497,0.03656,-0.27954,-1.16591,-0.34157,0.06894,-0.32205,-1.02680,-0.74243,-0.57511,0.86080,0.72108,-0.29281,-0.35622,0.04274
416,199,-0.19041,-0.46095,-0.97556,0.57893,-0.08021,0.42666,-0.01275,-0.22895,-1.31869,-0.75053,-0.73821,-0.08413,0.72642,0.09251,-0.81441,-0.75087
417,198,0.16916,-0.75093,-0.30795,0.60460,-0.93452,-0.05542,0.21842,-0.71346,-0.57126,0.08726,-0.79212,0.58181,-0.69986,-0.36365,-0.02162,-0.52563
418,199,-0.84272,-0.85122,-0.24043,0.65050,-0.45113,-0.61821,-0.29030,-0.48047,-0.84227,-0.62890,-0.10838,0.61552,-0.13476,-0.91812,-0.45488,-0.34098
419,199,0.60240,-0.22743,-0.11045,-0.65618,-0.27856,-0.68952,-0.21664,-0.39168,-0.24328,-0.23345,0.07087,0.32302,-0.09027,0.01277,-0.82040,0.15099
420,199,-0.28935,0.19634,0.49135,0.03667,-1.08161,-1.19276,-0.99673,-0.45452,-0.62729,-0.84454,0.64435,0.35432,0.33411,0.43155,-1.02351,-0.62993
421,199,-0.01774,0.72275,1.08113,-0.08698,-0.69791,0.19088,-0.37475,-0.19418,-0.91353,-0.99259,-0.24738,0.69086,0.82497,-0.44673,-0.69035,-0.27922
422,199,-0.00956,0.21151,-0.35153,-0.20366,-0.86393,-0.22402,-0.60028,-0.37445,-0.45145,-0.52255,-0.88002,0.07051,0.32266,-0.27014,-1.01254,-0.27490
423,199,-0.88862,-0.51692,0.15775,0.61051,-0.58836,-0.31451,0.45587,-0.24060,-0.31418,-0.54156,-0.06868,0.41697,-0.24215,-0.23902,-0.64728,-0.44655
424,198,-0.61629,0.40410,0.26452,0.93313,-0.18535,0.11200,0.45755,0.04732,-0.35694,-0.96869,-0.90730,0.25927,0.03411,-0.82228,-0.49695,-0.24720
425,199,-0.10862,-0.72710,1.11659,0.71101,0.11360,-0.47804,-0.74975,-0.32022,-0.65451,-0.76322,1.02154,0.65158,-0.40331,-0.35988,-1.09440,-0.69146
426,198,-0.58416,-0.72567,-0.83826,0.79329,-0.39782,-0.41231,-0.18583,-0.21013,-1.05275,0.90116,-0.38426,0.28217,-0.25717,-0.01387,0.65663,-0.32394
427,199,-0.43776,-0.21838,-0.60126,1.06375,-0.06459,-1.05864,-0.41254,-0.36956,0.01494,-0.90691,-0.12772,1.03612,-0.41657,-0.24763,0.72372,0.12057
428,199,-0.00027,-0.96804,1.35591,1.12158,-0.61444,-0.23626,0.40758,-0.52516,-0.79239,0.16513,0.83471,1.07006,-0.96287,-0.01082,-0.42600,-0.22974
429,199,-0.17647,0.52080,-0.87075,-0.13250,0.14548,-0.77507,-0.53324,-0.07249,-0.54127,0.07015,0.07015,0.84664,0.59881,-0.21848,-0.87147,-0.36752
430,199,1.08993,0.57163,0.58033,-0.35433,0.83495,-0.98606,-0.92333,-0.62848,-0.89438,-0.76976,0.27918,0.53760,0.50954,0.24551,-0.61380,-0.24533
431,199,0.92191,0.61013,0.66238,0.70873,-0.46013,-0.69975,-0.79704,-0.69376,-0.94018,0.26349,-0.85102,0.66675,0.35774,0.34064,0.59029,-0.22805
432,199,-0.87261,0.16794,-0.08939,0.22559,-0.87362,-0.82457,-0.42223,-0.56400,-0.42908,-1.08393,-1.22596,0.80198,-0.22887,0.31718,-0.84980,0.02027
433,199,0.53394,-0.30075,-0.02943,-0.76070,-0.86106,-0.24423,0.55614,-0.44087,-0.55566,-0.20942,-1.13773,0.72794,0.93368,-0.76631,0.24558,-0.52406
434,199,0.44600,-0.07930,0.06362,0.67057,-0.43528,-0.42042,-1.00691,-0.23368,-0.74492,-0.00444,-0.98157,0.84081,0.72883,-0.63661,-0.41170,0.17466
435,197,-0.41776,0.75437,-0.09042,0.19100,-0.30806,-0.87390,-0.30392,-0.80178,-0.04418,-0.96349,0.55992,1.01725,-1.22540,-0.71725,-0.74190,0.21598
436,199,0.95399,-0.18499,0.85871,-0.27067,0.09274,-0.47822,0.68644,0.04533,-0.92977,-0.67450,0.47041,1.09830,0.63377,-0.91236,0.34050,-0.15537
437,199,0.37258,-0.83241,-0.34161,-0.23500,-0.69545,-0.47641,-0.64327,-0.42261,-0.72496,0.40733,-0.90110,0.35765,0.52238,0.26709,0.06879,-0.53184
438,199,-1.13988,0.71372,-0.69315,-0.36897,0.18432,-1.01315,-0.45238,-0.15978,-0.79029,-0.23915,-0.63865,0.40402,-0.41341,0.12412,-0.16987,-0.15841
439,199,0.18229,-0.42586,-0.83330,0.27344,-0.78390,-0.63434,-0.75795,-0.23603,-0.68932,-0.16803,-0.27224,-0.05097,0.70549,0.33311,-0.26896,-0.86013
440,199,-0.47346,0.21198,0.04044,0.08200,-0.82565,-0.70263,0.50758,-0.11764,-0.38143,-0.98930,-0.38810,0.69093,0.44335,0.05396,-0.96316,-0.37990
441,198,-0.12994,0.44974,-0.79619,0.07149,-0.32914,-0.46365,0.58677,-0.89858,-0.66055,-0.38017,-0.03939,0.65777,0.76289,-1.07644,-0.74502,0.13220
442,199,-0.58561,-0.42096,0.48189,-0.37509,-0.65378,-0.59331,0.16926,0.09168,-0.57352,-0.76067,0.61683,0.95837,0.85140,-0.00873,0.96340,-0.19857
443,199,-0.92678,-0.39286,0.85200,0.52223,-0.02938,-0.57405,-0.78413,-0.24903,-0.61476,-0.15306,-0.00913,0.53119,0.20984,0.05753,-0.64797,0.05938
444,198,-0.23130,-0.69069,-0.61351,-0.71018,-0.61274,-0.01193,0.46319,-0.14450,-0.78317,-0.70388,-0.73129,0.91775,-0.89804,-0.68316,1.04499,0.34060
445,198,-1.16566,-0.29578,-0.18662,-0.88974,-0.18003,-0.39255,-1.06833,0.18907,-0.99224,-0.47103,-0.06109,0.61080,-0.07781,-0.44978,-0.79609,0.00424
446,199,0.44662,0.54407,-0.97761,-1.09893,-0.74404,0.05129,-1.07036,-0.20696,-0.88145,-0.26258,-0.40163,0.04305,0.30104,0.25938,-0.35360,-0.55690
447,199,-0.22757,-1.50900,-0.81220,-0.69800,-0.30726,-0.71302,-0.59466,-0.32851,-0.68273,-0.80974,-0.62876,0.01890,0.60789,0.17171,-0.82786,-0.10883
448,198,0.74767,0.72227,-0.64774,-0.74863,-0.42348,-0.46011,-1.03413,-0.49303,-0.73948,-1.05284,-0.89245,0.46973,-0.24010,0.60676,0.24444,-0.47546
449,199,-0.17329,0.02904,0.42971,0.05715,-0.27706,-0.35570,-0.03731,-0.42648,-0.69380,-0.63654,-0.00107,0.65376,-0.81948,-0.17067,-0.17786,-0.66529
450,199,0.33890,0.15510,-0.55780,-0.28763,-0.58749,0.17364,0.90283,-0.07248,-0.32068,-0.46235,-0.48742,0.35657,0.06193,-0.23532,-0.27150,-0.03315
451,199,-0.01396,0.70375,1.08002,-0.06225,-0.98227,-0.83075,-0.16918,-0.33149,-0.65921,-0.39702,0.33648,0.75206,-0.45737,0.40869,0.01513,-0.26810
452,199,-0.64213,-0.44423,-0.49590,-0.17260,0.48724,-1.03287,1.00956,-0.77085,-0.58485,-0.23648,0.09753,0.23327,-1.03110,0.18828,-1.02339,0.21902
453,199,-0.12555,-0.10373,-0.92734,0.12098,-0.79867,-0.40816,-0.47842,-0.27137,-0.79733,-0.84719,-0.26630,1.07867,1.05183,-0.20482,0.50197,0.18755
454,199,-0.82840,-0.17086,0.53608,-0.25358,0.27803,-0.89988,-0.67489,-0.01065,-0.98008,0.21037,0.95249,0.38060,-0.35209,0.48458,-0.16879,-0.45210
455,199,0.16278,-0.19732,0.76008,0.00195,-0.07262,-0.88287,0.31778,-0.57947,-0.96176,-0.76963,-0.77106,0.02935,-0.55805,0.22843,-0.78857,-0.18110
456,199,-0.77545,-0.38004,-0.62253,0.12966,-0.52621,-0.13645,0.57533,-0.65615,-1.11606,0.25230,0.94640,0.80931,-0.34863,0.46976,-0.13545,-0.27213
457,199,0.38189,-1.14212,-1.00728,0.64168,-1.15351,-0.43862,-0.71739,-0.89027,-0.80894,-0.69359,-0.96741,0.48747,-0.89718,-0.45093,-0.06405,-0.64307
458,199,-0.38322,-0.26511,0.68184,-1.10077,-0.25004,-0.81766,-0.26862,-0.18821,-0.78010,-0.67202,0.71560,0.97640,0.04196,0.14434,-0.28711,0.13372
459,198,-0.49088,-0.75950,0.13707,0.12499,0.05109,-0.31328,-0.40360,-0.45319,-1.03867,0.49830,0.61698,0.71743,0.39478,0.23144,-0.81766,0.14344
460,199,0.16618,0.28036,0.83322,-0.12699,-0.25456,-0.72312,-0.16960,-0.07788,-0.93273,-0.60777,0.26824,1.05526,-0.06225,-0.72992,-0.86956,-0.03990
461,198,-0.73130,-0.58557,0.54348,0.31792,0.45854,-0.67550,1.13419,-0.16634,-0.58067,-0.35935,-0.13738,0.87708,-0.66499,-0.06807,-0.33336,0.11147
462,199,-0.76364,-0.02160,-0.48868,-0.35527,-0.66599,-0.17552,-0.74037,-0.27914,-0.71077,-0.13416,-0.99250,1.12070,0.40927,-0.34286,0.99904,-0.31135
463,199,0.04510,-0.53963,-1.07068,0.21859,-0.72308,0.23863,-0.55815,-0.17175,-0.97322,0.28671,-0.53245,0.37226,-0.66240,0.02493,0.34497,-0.72324
464,199,0.74571,0.15462,-0.02557,-0.49848,-0.59154,-0.37251,-0.52139,-0.02567,-0.76120,-0.33841,-0.37002,0.23721,-0.06209,0.04838,-0.49321,-0.20263
465,198,-0.09069,-0.02860,-0.77407,0.59743,-0.20834,-1.01480,-0.41876,-0.86125,-0.62604,-0.63838,0.34852,0.84267,0.88748,-0.79847,0.89781,0.45172
466,199,-0.63818,0.24081,-0.18159,0.07082,-0.83832,-0.93531,-0.13911,-0.71518,-0.39708,-1.00841,0.02976,0.42930,-0.39254,-0.33911,-0.80263,-0.41498
467,199,-0.69933,-0.00431,-0.54482,-0.36181,0.46519,-0.49678,0.71585,-0.07793,-0.94145,0.02135,0.94377,0.68430,0.66022,-0.19969,-1.00588,-0.31848
468,199,0.47034,-0.61417,0.04626,0.45004,-0.50315,0.15218,0.28478,-0.34023,-0.95409,-1.13001,-0.56573,0.07016,0.04130,-0.43501,-0.10127,-0.36067
469,199,0.45680,0.38230,-0.89896,-0.82482,-0.67740,-0.17037,-0.08563,0.06285,-1.31371,-0.88465,0.30311,0.59235,0.95854,-0.29259,-0.23310,-0.69768
470,199,-0.09805,-0.53295,-0.85082,-0.18163,-0.51863,-0.38308,0.82191,-0.28304,-0.29090,-0.10118,-0.86735,0.36706,0.35359,-0.74973,-1.06572,-0.11082
471,199,0.85809,-0.09106,-0.42842,0.08044,-0.43946,-1.12692,0.17103,-0.06779,-0.85235,-0.99276,-0.39630,0.46711,0.37121,-0.72255,-0.67409,-0.75085
472,198,0.68485,-0.19057,0.60942,0.99098,0.46992,-0.55898,-0.38607,-0.42688,-0.83456,-0.52212,0.53570,0.82463,0.95110,0.74472,-0.61553,-0.21897
473,199,-0.36647,-0.85071,0.51263,0.16176,-0.55965,-1.27399,-0.79199,-0.82657,-0.82887,-0.75313,-0.46414,0.66633,0.69488,0.19261,-0.26928,0.19449
474,199,0.67054,-0.73443,-0.29820,0.17539,-0.58016,-0.91684,-0.16723,-0.77332,-0.19488,-0.76425,-0.39718,0.63721,-0.21489,-0.30128,-0.84579,0.16473
475,199,0.08824,0.32931,0.45686,1.06194,-0.31594,-0.76937,0.49550,-0.49090,-0.48275,-0.68372,-0.41376,0.41426,-0.05232,-0.64231,0.28549,-0.76078
476,199,-0.26506,-0.57496,-0.67638,0.20723,-0.26656,-0.56531,0.10216,-0.12824,-0.85193,0.23153,-0.21081,0.61898,-0.45634,-0.15198,0.56242,-0.15360
477,199,0.64961,-0.74454,-0.56260,-0.45854,-0.60386,-0.73375,-0.88598,-0.41928,-0.52568,-0.60483,-0.90817,0.29184,0.82762,-1.03936,-0.76711,-0.34419
478,199,0.11853,-0.99984,0.27539,0.13957,-0.69342,-0.62786,0.66466,-0.39967,-1.07657,-1.09873,-0.59460,0.78083,-0.00859,-0.56812,-0.00141,-0.78962
479,199,0.45018,-0.57834,0.75419,0.71051,0.43666,-0.97255,0.28948,-0.32694,-0.57413,-0.83106,-0.23569,0.91221,0.83359,-0.36218,0.33999,0.02905
480,199,0.65261,-0.86234,0.27119,0.31563,-0.83449,-0.86078,-0.02242,-0.41770,-0.78845,-0.89556,1.01958,0.37930,-1.19796,0.43407,0.09217,-0.67066
481,199,-0.20357,0.34003,-0.76733,-0.52545,-1.02713,-1.04497,0.09695,-0.26687,-0.96484,0.40417,0.38326,0.67594,0.96712,-0.02189,0.47094,-0.80516
482,199,-0.31379,-0.18264,-0.97729,0.15593,-0.40140,-0.61537,-0.28391,0.01282,-0.67459,-0.03633,-0.34127,0.48039,0.31049,-0.23192,-0.61215,-0.45090
483,199,-0.52048,-0.14925,-0.83671,-0.81513,0.13167,-1.12925,0.48656,-0.25143,-0.63271,0.54205,-0.75700,0.76455,-0.86944,0.25388,-0.94205,-0.13499
484,199,0.69373,-0.78278,-0.60824,-0.14981,0.24552,-0.68280,0.20998,-0.43171,-1.05741,-0.90226,0.48044,0.71456,-0.94778,-0.58406,0.95799,-0.13159
485,199,-0.59732,-0.79919,-0.15150,0.20384,-0.86199,-0.87696,-0.53132,-0.35050,-0.93438,-0.15968,0.18119,0.54692,0.19912,0.61978,-0.49191,-0.31794
486,199,0.58807,-0.82975,-0.60552,0.92133,-0.15376,-0.96623,0.65680,-1.05071,-0.94667,-0.94990,-0.75614,0.57745,-0.32943,-0.13693,-0.01551,0.05125
487,198,-0.60404,-0.78599,-0.09952,0.82865,-0.13044,-0.77087,-0.16886,-0.50275,-0.38796,0.02604,-1.08603,0.69336,0.00072,-0.69388,0.41252,-0.39540
488,200,0.69195,-0.29286,-0.45504,-0.71075,-0.73186,-0.40119,-0.43442,0.10352,-0.82541,0.45403,0.20219,0.66449,0.01711,-0.68972,-0.86879,-0.35053
489,198,0.18209,-0.96282,0.03306,0.81809,-0.69711,-0.61406,-0.56904,-0.50616,-0.61726,0.47274,-0.27263,0.82445,-1.06964,-0.03438,0.45510,-0.54469
490,199,0.21159,-0.83425,-0.42244,-0.69558,-0.64789,-0.86666,-1.10921,-0.07030,-0.90690,-0.71660,1.18008,1.07447,0.47516,-0.66112,-0.59952,-0.75590
491,199,-0.21994,-0.70824,-0.06191,0.26653,-0.35439,-0.89438,-0.76510,-0.55452,-1.03792,-0.80977,1.06257,0.93915,0.89947,-0.69238,-0.25148,-0.02903
492,199,-0.19049,-0.15924,0.80219,-0.91595,-0.34241,-1.10856,-0.69322,-1.01671,-0.66985,-1.01093,-0.53236,0.92627,-0.93237,0.75238,-0.68708,0.34385
493,199,0.27422,-0.14928,0.10945,0.31367,-0.03287,-0.64656,0.12392,-0.39640,-0.68066,-0.11749,-0.27233,0.56548,0.49090,-0.12957,0.83817,-0.86349
494,198,-0.27917,0.29082,-0.89099,-0.02939,-0.50491,-0.70898,0.60637,-0.39671,-0.64085,0.35026,-0.31672,0.66898,-0.13371,0.46561,0.62557,-0.77503
495,198,0.62987,0.40312,-1.10009,-0.48270,-0.19908,-0.96729,0.20243,-0.79415,-1.08202,0.91848,-1.18027,0.96024,-0.08054,0.59300,-0.56167,0.41215
496,198,0.47319,-0.65525,-0.11019,-0.53291,-0.85415,0.11191,-0.85480,0.02645,-1.16057,-0.50864,-0.62078,-0.02437,0.48926,-0.58057,-0.62949,-0.94075
497,199,0.58130,-0.82113,0.15294,-0.88123,-0.98814,-0.29671,-0.00693,-0.47464,-1.05744,-0.49162,0.15251,0.61035,-0.89469,0.07307,-0.61744,0.32203
498,199,-0.46344,-0.80092,0.62943,0.39436,0.21345,-0.98408,0.21382,-0.73358,-1.08076,-0.22025,0.16033,0.54908,0.56490,-0.61156,-1.00959,-0.25327
499,199,1.12368,0.74252,0.15184,0.67685,0.54512,-0.80272,1.04261,-0.12320,-0.47362,-0.77424,-0.58453,0.32839,-0.16371,-0.12085,-0.26213,-0.42096
500,199,-0.39196,-0.27259,-0.42576,0.75003,0.01974,-0.15720,-0.17041,-0.34307,-0.88660,-1.18122,-0.95426,-0.14775,-0.82977,-0.22268,0.70770,-0.23013
501,198,-0.74802,0.34021,-0.73727,0.37530,-0.99503,-0.35660,-0.71212,-0.77381,-0.55086,-0.37186,0.13171,0.86740,0.58822,-0.60811,-0.79880,0.61588
502,199,0.08024,-0.39622,0.18523,-0.27310,-0.39214,-0.20925,0.17088,-0.21835,-0.60540,-0.68598,-1.05222,-0.03913,0.19612,0.07415,0.20184,-0.25075
503,199,0.68077,-0.58083,-0.68845,0.18226,0.02652,-0.85029,-0.83092,-0.18242,-1.11325,0.59356,-0.89352,1.06826,-0.46682,-0.65806,-0.85074,-0.62069
504,199,0.68259,-0.54245,0.01421,0.82913,-1.21979,-0.79850,0.35006,-0.65478,-0.44913,0.17073,-0.88285,0.71877,-0.16102,0.03816,-0.76384,0.43502
505,199,0.16787,0.28824,-0.14803,-0.30660,-0.71598,-0.60064,0.54693,-0.64034,-0.85928,-0.89830,0.55764,0.29134,0.60722,-0.30894,-0.06915,-0.58530
506,199,-0.37862,-0.89304,-0.28593,0.00892,-0.81002,-0.13673,-0.33865,0.01618,-0.37528,-0.50864,-0.06520,0.99654,-0.06648,-0.92495,-0.24007,0.15770
507,199,0.41327,-0.20037,-0.82307,-0.65488,-0.82241,0.21704,-0.58297,-0.43539,-0.91994,-0.90233,0.19077,0.71832,-0.33969,-0.77330,-0.70368,0.36127
508,199,-1.14833,0.68139,-0.72479,0.05172,-0.70583,-0.98181,-0.08865,0.04525,-0.93429,-0.62107,0.02536,0.77976,-0.34302,-0.40410,1.04782,0.05564
509,200,-0.44228,-0.83721,-0.71466,0.51402,-0.42348,-1.01938,-0.45648,-0.34270,-0.88752,0.08184,1.06501,0.74495,0.39268,-0.17986,-1.00800,-0.41890
510,199,-0.90046,-0.66739,0.43028,-0.19495,-0.98864,-0.45249,0.56906,-0.13516,-0.94293,-0.39067,0.43562,0.62164,-0.04134,0.28893,-0.21449,-0.33585
511,199,-0.52702,0.16966,-0.73327,1.01219,-0.66348,-0.21122,0.68908,-0.51725,-0.86123,-0.31453,1.34049,0.72101,0.54340,-0.23024,-0.64689,0.32666
512,199,-0.46686,-0.79237,0.37372,0.44271,0.12991,-0.12207,0.17860,-0.14857,-1.06045,0.23706,-0.34120,0.92066,-0.10554,-0.54986,-0.72195,-0.45966
513,198,1.01433,-0.88014,-1.09616,0.82972,-0.39572,-0.96858,-0.56986,-0.71231,-0.03245,0.60427,-0.56928,0.78581,-0.62041,-0.11359,-0.66594,-0.06389
514,199,1.03530,0.24036,-0.56924,-0.80506,-0.34318,-1.01074,0.20556,-0.15051,-0.62759,0.66464,0.99662,0.82439,-0.08456,-0.17568,-0.81235,-0.39352
515,199,-0.02328,0.40354,0.08275,-0.10038,-0.84214,-0.78975,-1.15353,-0.68306,-0.82776,-0.80435,0.40983,0.89747,0.34745,-0.01895,0.89485,0.05961
516,199,-0.88531,0.18393,-0.96322,-0.17326,-0.82846,-0.81822,0.69112,-0.34879,-0.84414,-1.03295,-0.79088,0.05474,0.05385,0.16930,-0.87040,0.10165
517,198,-0.71713,0.77560,0.97412,-0.34745,-0.70932,-0.90550,0.85752,-0.91845,-0.51305,-0.29866,0.32270,1.01712,0.50090,0.34051,-0.11218,0.17175
518,199,0.55782,-0.06080,-1.07810,-0.94595,-0.91696,-0.86563,-0.64225,-0.73766,-0.55123,-0.47856,-0.28631,1.08673,-0.81024,-0.76230,0.85038,0.32418
519,198,0.83811,0.64844,-0.11163,-0.76853,0.50666,-0.75817,0.09812,-0.26890,-1.15849,-0.67004,1.01171,0.70222,0.52795,0.63607,-1.08162,0.27508
520,198,0.24571,-0.99918,-0.09103,-0.74450,-0.50509,-0.39288,-1.02199,-0.06907,-0.02655,0.51943,0.75497,0.68028,-0.01453,-0.25147,-0.52245,0.02264
521,199,-0.61913,0.18638,0.14538,0.52181,-0.13120,-0.62299,-0.27528,-0.22005,-0.38547,-0.00351,-0.64173,0.91441,-0.04363,-0.43450,-0.44318,0.07876
522,197,-0.96208,-0.03365,0.74961,-0.83115,-0.57099,-0.61658,-0.46379,-1.11347,-1.07666,-0.24414,-1.09539,0.80119,0.64307,0.02201,-1.04522,0.58497
523,198,-0.26594,-0.07244,-0.80735,0.85990,0.10617,-0.48549,-0.50057,-0.33360,-1.47680,-0.63078,-0.72511,0.04340,-0.75388,-0.42014,-1.01603,-0.08404
524,199,-0.12356,-0.96718,-0.45666,0.31433,-0.82999,-0.58543,0.50462,-0.98645,-1.01200,-0.30021,0.59383,0.53422,0.89507,0.56289,0.46555,0.15311
525,199,-0.17054,-0.58223,-0.59781,0.60794,-0.38360,-0.40908,0.62321,-0.55139,-0.73620,-0.76794,-0.87947,0.17454,0.37693,0.12207,-0.69490,-0.34458
526,199,0.40095,-0.63655,0.31124,-0.65690,-0.86646,0.21835,0.97702,-0.23200,-0.96278,0.01414,0.13768,0.63508,-0.43881,0.17918,-0.52682,-0.27123
527,199,1.02729,-0.05838,-0.95570,0.39250,-0.51453,-0.61100,-0.61678,-0.77381,-0.87460,-0.53684,-0.71444,-0.08165,0.94582,0.02061,-0.90650,-0.07756
528,199,0.37186,0.38872,0.49764,-0.16086,-0.05039,-0.18402,0.30385,-0.11108,-0.72890,-0.63381,0.63332,0.88583,-0.19126,-0.11612,0.59945,-0.70655
529,199,0.09492,-0.99992,-0.45729,0.12792,-0.73124,-0.93805,-0.16264,-0.44661,-0.81842,-0.31489,-0.39037,0.72590,0.84789,-0.42153,0.12897,-0.74555
530,199,-0.47530,0.67487,-0.15506,0.91240,0.22953,-0.69352,-0.42087,-0.03773,-0.67952,-0.91245,-0.29378,0.74134,0.48816,-0.49445,-0.26958,-0.29171
531,199,-1.03219,-0.71033,0.57413,0.43506,-0.88814,-0.83060,-0.25320,-0.22791,-0.67803,-0.84589,-0.75634,0.73961,-0.44598,-0.24348,-0.74711,-0.00170
532,198,-0.23866,-0.85927,-0.29743,-0.34019,-0.67710,-0.68296,0.50329,-0.61257,-0.30588,-0.25177,-0.56054,0.88228,0.70579,-0.94288,0.69197,-0.06047
533,199,-0.75384,0.10478,0.54789,0.11681,0.21217,-0.82537,-0.35581,-0.40592,-1.08582,-0.55408,-0.33357,0.96934,-0.78753,-0.63657,-0.88852,0.58365
534,199,0.47226,-0.79664,-0.25234,0.50588,0.02909,-0.32809,-0.97106,-0.47213,-0.82192,-0.99977,-0.74277,0.44628,0.36449,-0.07295,-0.55168,-0.02381
535,199,0.45698,-0.00768,-0.07650,-0.52750,-0.26396,-0.89519,0.71575,-0.42514,-0.80067,0.56850,0.72090,0.93861,-0.56284,0.20501,0.53648,-0.35225
536,199,0.15231,0.25686,-0.69885,0.30379,-0.43929,0.65968,-0.26162,-0.49848,-0.83002,0.08534,0.64873,0.66692,-0.54881,-0.41938,0.76777,0.41687
537,199,0.82929,-0.38288,0.26891,0.81831,-0.92616,-0.39725,-0.18474,-0.57694,-0.83986,-0.61994,-0.09521,0.72564,-0.20722,-0.62939,-0.36584,-0.67442
538,199,-0.28411,0.06535,-0.44459,-0.80802,0.09644,-0.76461,0.22664,-0.17816,-1.12035,-1.09787,0.19141,0.16497,-0.08858,0.42333,-0.64033,-0.02647
539,199,0.13304,0.24276,-1.18201,0.21132,-1.05930,-0.34681,-0.80138,-0.33681,-0.84391,-0.58476,-0.17137,0.89949,-0.35249,-0.69578,-0.02924,-0.03181
540,199,0.84338,0.57438,-1.03463,0.41781,-1.11174,-0.07126,-0.34376,-0.76951,-0.56730,-0.43286,-0.00155,0.34197,-0.14371,0.05384,-0.39006,0.04608
541,198,0.88726,0.57335,0.29105,0.42800,-0.63589,0.27047,0.21529,-0.41148,-0.44683,-0.92704,-0.61062,0.36844,0.98779,-0.87916,-0.67408,-0.27866
542,199,0.03104,0.00860,-0.74774,0.44779,0.03424,0.06204,-0.79775,-0.14404,-1.25260,-0.12649,-0.05519,0.98700,0.49141,0.35274,-0.77635,-0.11717
543,199,-0.24846,0.90260,0.60860,0.46826,-0.59093,-0.51447,0.93307,-0.40063,-0.48873,-1.07597,0.00893,0.57794,-0.20142,-0.22505,0.65883,-0.45461
544,199,0.68670,-0.01528,0.39292,0.33352,-0.56389,0.31482,-0.78734,-0.09615,-0.95810,0.31760,-0.28822,0.33437,0.75139,-0.23184,-1.00496,-0.41624
545,199,0.30120,0.22189,0.91878,-0.25660,0.33676,-0.90455,0.53967,-0.68027,-1.22865,-0.89227,-0.41060,0.72632,-0.32850,0.15645,-0.09033,0.29458
546,199,-0.12725,-0.76386,0.29664,-0.80980,0.50975,-1.02242,0.14464,-0.06820,-0.70889,-0.39052,1.29210,0.81840,0.45847,-0.49989,0.09348,-0.68182
547,199,-0.25603,-0.65915,0.97278,0.02090,0.47160,-0.38759,-0.61519,0.00736,-0.48139,-0.78976,0.43447,0.68252,0.34499,-0.77827,-0.77383,0.04028
548,199,0.67120,0.42973,-0.41151,-0.07118,-1.04497,-0.38896,0.56038,-0.37469,-0.67388,0.53940,-0.43355,0.54439,0.89803,0.08235,0.26677,-0.67608
549,199,-0.58411,-0.91723,-0.49116,-0.03244,-0.87475,0.44482,0.40014,-0.10651,-0.49316,-0.32540,0.41424,0.69745,0.38958,-0.05635,0.32282,-0.18724
550,199,-0.37050,-0.24336,0.30001,0.14555,-0.02968,-0.68582,0.48239,-0.16149,-0.76432,-0.96035,-0.60902,0.12217,0.82530,0.32413,-0.26154,-0.62676
551,199,0.24609,1.08342,0.26709,-0.29670,-0.51616,-0.55523,0.13082,-0.18314,-1.26155,-0.30491,-0.37886,0.79029,0.03426,0.12729,-0.85056,0.09461
552,199,-0.07718,-0.09039,0.69564,0.74028,-0.13396,0.06226,-0.60930,-1.01425,-0.97322,-0.66492,-0.05882,0.81281,0.68897,-0.42011,-1.04155,-0.74324
553,199,1.02216,-0.22943,-0.45406,-0.53277,-0.54352,-0.86647,-0.68128,-0.38358,-0.91240,-0.68271,0.29191,0.56975,-0.27495,-0.36425,-0.79690,-0.85583
554,198,0.70649,0.39852,0.08430,0.87290,-1.08915,-0.60580,0.67995,-0.26123,-0.29934,-1.03982,0.16653,0.59043,-0.39778,-0.59853,-0.96099,0.06246
555,199,1.01459,-0.76245,0.65023,0.14469,-1.05237,-0.43946,0.34966,-0.94272,-0.52084,-0.46335,-0.58648,0.39039,0.33789,0.59278,0.20597,-0.62907
556,199,-0.31471,-1.05125,-0.71494,-0.89136,-0.63984,0.08851,-0.59966,0.08409,-0.69237,0.62003,0.59494,0.87854,0.02747,-0.37171,-0.27973,0.03874
557,199,-1.00266,0.45265,0.76980,0.78421,-0.68929,-0.46067,0.50017,-0.27715,-0.70758,-1.07441,-1.03703,0.35006,-0.52605,0.18009,0.71590,-0.15256
558,199,-0.93194,-0.14349,0.25803,0.82904,0.46038,-1.04947,-0.27315,-0.82629,-0.51744,-0.77192,0.05276,0.66244,-0.26238,0.02571,-0.60562,0.59549
559,199,0.46518,-0.91645,-0.05121,0.55208,0.15551,-1.24920,0.91782,0.05521,-0.67191,-0.71605,-0.96559,0.42827,0.57593,-0.47710,-0.00313,-0.92547
560,199,-0.62072,-0.81242,-0.08096,0.42259,-0.97233,0.23291,0.83210,-0.20179,-0.98893,-1.17182,-0.00709,0.12218,-0.54295,0.37129,-0.19843,-0.41171
561,199,0.75133,0.31484,-0.32711,0.42682,-0.60334,-0.42576,-0.53973,-0.42596,-0.95050,0.11537,-0.42019,0.83072,-1.06688,-0.60664,0.26739,-0.25960
562,199,0.13085,-0.88924,-1.09857,-0.01259,-0.53481,-0.59303,0.22347,-0.34708,-0.57312,-0.47317,0.79649,0.92848,-0.62788,-0.43247,-0.82761,-0.07327
563,199,0.83974,0.01630,1.17084,-0.69515,0.07307,-0.74996,-0.35198,-0.66156,-1.39449,-0.60146,-0.86582,0.58577,0.67407,0.15352,0.60794,-1.09145
564,199,0.83606,-0.74890,0.03905,-0.74867,-0.33263,-0.54618,-0.20942,-0.23732,-0.16868,-0.52477,-0.69213,0.72535,-0.02666,-0.43288,0.37665,0.25350
565,199,-0.35387,-0.34143,0.15002,-0.79204,-0.84126,-0.70555,-0.09925,-0.12387,-0.49229,0.25309,0.59778,0.74265,0.50361,-0.46861,-0.24517,-1.03027
566,199,-0.92926,0.05085,0.67916,1.12580,0.14794,-0.59398,-0.11480,-0.28706,-1.22927,0.74341,-0.51192,0.62960,-0.27196,0.35721,-0.52837,-0.64695
567,199,0.33486,-0.13557,0.93350,0.22080,-0.38224,-0.20673,1.01210,-0.23726,-0.92262,-0.82372,-0.96274,0.87085,0.65605,-0.11040,0.23975,0.25289
568,199,-0.87859,0.55686,0.12165,0.57010,-0.28475,-0.91420,-0.60860,-0.82703,-0.45062,-0.68948,-0.26429,0.94864,0.72443,-0.44473,-0.38635,-0.13736
569,198,0.01791,-0.00610,-0.07597,0.47680,0.43722,-1.08047,0.88789,0.24200,-0.68704,0.29926,-1.40020,0.98608,0.20902,-0.87681,0.28262,-0.75556
570,199,-0.08836,-0.76797,-0.70182,0.89114,-0.75141,-0.34295,-0.56179,-0.57254,-0.65761,-0.69153,-0.72662,0.77283,-0.77525,-0.19053,-0.69884,0.21452
571,199,-0.71000,-0.26548,0.31164,0.31023,-0.44077,-0.60951,0.84334,-0.10126,-0.52269,0.27629,0.62537,0.84572,-0.56593,0.05917,0.73347,-0.52065
572,199,0.05200,-0.31465,0.52515,-0.27066,-0.57302,0.31655,0.53229,-0.89319,-0.89815,-0.93389,-0.56186,0.93083,0.35686,-1.12806,-0.85799,0.61463
573,199,0.70395,-0.26792,-0.58914,-0.43296,0.35560,-0.98937,-1.04836,-0.74874,-0.84419,-0.81125,-0.22272,0.42224,0.37789,0.91393,-0.38829,-0.13731
574,199,-0.70548,-0.97804,-0.13205,0.13609,-0.55639,-0.46754,-0.93721,-0.13061,-0.61895,-0.09060,-0.31143,0.05174,0.60710,0.14677,-0.45698,-0.93506
575,199,-0.67466,0.52259,-0.32290,-0.27818,-0.16262,-1.13058,-0.54807,-0.16373,-0.93909,-0.46768,0.63613,0.56727,1.21771,0.33218,0.74253,-1.36288
576,199,-0.92080,-0.13694,-0.30918,0.97865,0.35583,-0.51955,-0.85583,-0.34273,-1.01052,-0.13378,-1.07372,0.60071,0.17960,-0.37913,-0.71418,0.15456
577,199,0.91222,0.33277,-0.61223,-0.07250,-0.49362,-0.90619,-0.69868,-0.22547,-0.78923,-0.18304,0.05067,0.96197,0.59434,-0.68865,-0.86580,-0.47355
578,199,-0.99145,-0.92477,0.27900,-0.14259,-0.73368,-0.12028,-0.14032,-0.24052,-0.59739,0.27462,-0.80295,0.16223,1.05764,0.35075,-0.55653,0.06707
579,199,-0.61692,-0.02675,-0.53795,0.42533,-0.55669,-0.70546,0.18383,-0.11752,-0.77088,-0.82699,0.51694,-0.07543,0.62329,-0.12611,-0.86265,-0.09697
580,199,0.93494,-0.79689,-0.33372,-0.95717,-0.39845,-0.83401,-0.16276,-0.48957,-0.85317,-0.73672,-0.66818,0.28861,-0.82627,0.39047,0.12858,-0.05463
581,199,-0.04575,-0.21127,-0.78828,-0.21010,-0.28045,-0.16633,0.35996,-0.27112,-0.69204,-0.52924,-0.03069,0.32565,-0.39879,-0.11685,-0.10313,0.04584
582,199,0.52346,-0.80890,0.34207,0.42957,0.64781,-0.79890,0.50129,-0.19853,-0.24354,-0.36871,0.38635,0.40905,0.73460,-0.66484,-0.55956,0.03855
583,199,0.54757,-0.04642,-0.69081,0.38756,-1.03615,-0.17922,-0.73648,-0.95834,-0.32949,-0.53153,-0.97215,0.56728,-0.09858,-0.61187,0.17150,-0.03810
584,199,0.51291,0.69430,0.93685,-0.94832,-0.34494,-0.78551,0.14214,-0.12826,-0.92511,0.77832,-1.08295,1.10774,0.76325,0.46094,0.30692,-0.64308
585,199,0.19428,-0.27977,-0.46450,0.35939,-0.89379,-1.00529,-0.00406,-0.38520,-0.30409,-0.14410,-0.05991,1.20937,0.16308,-0.69243,-0.62782,0.15836
586,199,0.91440,-0.41999,0.11756,0.71220,-1.26833,-0.68078,0.86801,-0.84170,-0.70376,0.78779,0.44518,0.99314,0.50249,-0.28670,0.30110,-0.14161
587,199,0.67352,-0.40082,0.56729,-0.81792,-0.60917,-0.46863,0.83937,-0.57515,-0.79747,-0.86663,-0.05110,0.17935,0.22668,0.09970,-0.13879,-0.59705
588,199,-0.67110,-0.61552,-0.97104,0.83348,-0.02870,-0.57588,0.91688,-0.73381,-0.77579,-0.26446,-0.24935,0.76701,-0.70342,0.07313,-0.80007,0.05593
589,198,-0.97556,0.49821,0.08385,0.01247,-0.48543,-0.72311,0.08070,-0.44475,-0.54166,-0.88010,0.40026,0.43989,0.21236,0.34110,-0.37343,-0.33963
590,198,0.28488,-0.50306,-0.99798,0.50650,-0.53231,-0.02668,-0.56667,-0.27479,-1.14233,0.00811,-0.42247,1.00713,0.44332,0.14926,-0.91499,-0.56235
591,198,1.27929,-0.17442,-0.83833,-0.88923,-0.22649,-0.49814,0.01021,0.16454,-1.01517,-0.48694,-0.09788,0.76331,-0.70922,-0.87046,0.65931,-0.00460
592,199,0.14912,0.36561,0.04842,0.40710,-0.05419,-0.71821,-0.77073,-0.48406,-0.96643,0.05603,-0.68315,0.46444,0.33373,0.49040,-0.08179,0.10913
593,198,0.89267,-0.36652,-0.72633,-0.51111,0.08265,-0.92536,-0.01612,-0.42116,-0.45168,-0.32053,0.32554,0.83350,0.52078,-0.71991,0.09758,-0.04216
594,199,0.54302,-0.56806,0.62766,-0.03382,-0.66937,0.52666,0.12360,-0.06069,-0.88459,-0.62306,-0.07483,0.21898,-0.75064,-0.09012,0.04014,-0.03722
595,198,0.96041,-0.61210,0.67456,0.15664,-1.09662,-0.41533,0.07548,-0.28833,-0.11451,-0.41466,-1.12780,0.52076,0.59317,-0.87182,-0.98952,-0.32231
596,199,-0.19894,-0.44574,-0.31530,-0.77888,-0.84581,-1.03116,0.97317,-0.02526,-0.16118,-0.79308,-1.11345,0.21840,0.49046,-0.19141,-0.18188,0.00035
597,199,0.45378,-0.53029,-0.34394,0.35804,0.05498,-0.56419,0.60033,-0.24766,-0.29136,0.08802,-0.38755,0.82484,-0.17029,-0.30082,-0.55827,-0.32545
598,199,-0.66403,-0.47325,-0.15075,-0.28606,-1.22469,-0.14184,0.76011,-0.19338,-0.43926,-0.27330,-0.78490,0.94817,0.29832,0.01400,0.67336,0.32797
599,199,-0.69005,-0.76149,-0.05602,-0.51025,-0.04290,-0.63154,0.34537,-0.04719,-0.60638,0.04312,1.15531,0.53442,-0.00526,0.35885,0.40885,-0.18229
600,199,-0.66572,-0.12425,-0.69747,0.73677,-0.71587,-0.40917,-0.21871,-0.08252,-0.07122,-0.12863,1.11136,0.70577,-0.02403,-0.44477,-0.15114,-0.47857
601,198,-0.14405,-0.55785,-0.79201,-0.64306,-0.62241,-0.83196,-0.60890,-0.57302,-0.30438,0.39674,-0.90488,0.88338,0.83570,-0.67797,-0.71076,0.46890
602,199,0.60175,-1.23080,-1.05451,0.98865,-1.05408,-1.11867,0.09212,-0.63490,-0.66119,-0.44055,-1.36998,-0.00345,0.31383,-0.06064,0.11593,-1.14850
603,199,-0.09366,0.23124,0.69573,-1.09482,-0.07713,-0.75777,-0.27374,-0.51384,-0.89210,-0.17741,0.03499,0.97935,-0.76986,0.74200,0.84483,0.06156
604,199,0.52597,0.18675,-0.12170,-0.37774,-0.62152,-1.10019,-0.29127,-0.53836,-0.40993,0.04099,-0.68698,0.42676,0.56106,0.02561,-0.02879,-0.53039
605,199,0.13077,-0.04893,-0.53858,0.76201,-0.37645,-0.10026,0.71139,-0.48158,-0.95340,-0.63995,-1.05267,0.11636,1.19775,-0.40931,-0.23137,-0.77949
606,199,0.34913,-0.21634,0.39865,0.22189,-0.42565,-0.25785,-0.13295,-0.09238,-0.98664,0.13946,-0.41334,0.59394,-0.36708,-0.17552,-0.50601,-0.71088
607,199,0.96773,-0.55084,0.45045,0.44003,0.27711,-0.61001,-0.10099,-0.42538,-0.24002,-0.37959,-0.02429,0.16530,0.48586,-0.15847,-0.54489,-0.42491
608,199,0.36299,-0.00047,-0.19357,-0.11370,-0.02470,-1.20788,0.60897,-0.49047,-0.56584,-0.34411,-0.26127,0.69782,-0.26802,0.11145,-0.76765,-0.11661
609,199,0.23536,0.26201,0.34430,-0.23451,-0.91584,-0.67810,-0.65930,-0.32210,-0.25196,-0.22909,-0.96080,0.38672,0.59271,0.06466,0.08748,-0.56406
610,199,-0.72303,0.05796,-0.20830,0.70244,-0.26682,-0.76379,-0.87277,-0.25532,-0.70741,0.11899,-0.60129,-0.01503,1.20339,0.41250,-0.99046,-0.55802
611,199,-0.75487,-0.77643,-1.03628,-0.13652,-0.57105,-0.43305,0.33251,-0.18947,-0.54246,0.74688,0.17895,0.51827,0.38678,0.27809,-0.54101,-0.14550
612,199,0.74598,0.03748,-0.98319,0.29922,0.02260,-0.67424,-0.89657,-0.03132,-0.76291,-0.13850,0.29616,0.85755,-0.07808,-0.29815,-0.98661,-0.28097
613,199,0.88801,-0.84747,-0.78866,0.12035,-0.87910,-0.68135,-0.40476,-0.52961,-0.29734,-1.06115,-0.61041,0.76439,0.29018,-0.70318,0.90204,0.43822
614,199,1.00062,-0.91701,-0.63467,-0.46425,-0.54364,-0.51236,0.80206,-0.00855,-0.53224,-0.40445,0.49291,0.94250,-0.10736,-0.41684,0.06325,-0.36138
615,198,0.61571,0.71846,-0.39601,-0.74390,0.05063,-0.37874,0.01710,-0.59411,-0.70801,-0.11242,-0.28474,0.56249,0.30786,-0.15396,0.74541,-0.54286
616,199,-0.41193,-0.66433,0.69059,0.99909,-0.57084,0.60217,-0.55611,-0.03554,-1.05452,-1.01661,0.02983,0.17017,-0.70154,-0.43239,-0.97541,-0.36541
617,199,-0.53264,-0.16263,-0.98483,0.66200,-0.37937,-0.19920,0.73397,-0.07199,-0.58903,-0.99986,-0.02980,0.32759,-0.34284,-0.60465,-0.72218,-0.80979
618,199,-0.28929,0.16703,0.13553,0.70746,-0.78064,-0.23833,0.78179,-0.35726,-0.65932,0.51876,0.77266,0.62927,0.67302,-0.30298,0.00556,-0.47107
619,199,0.50192,-0.93979,-0.09162,0.28948,-0.83606,-0.45313,0.96051,-0.02560,-0.62714,-0.78663,0.30758,0.72078,0.28310,-0.82695,0.16370,-0.16868
620,199,-0.58933,-0.41885,0.15527,0.20085,-0.44868,-0.55365,1.03128,-0.57016,-0.69872,0.25116,-0.13283,0.72257,0.25202,0.21439,-0.71462,-0.37587
621,198,1.03616,0.85682,-0.28174,-0.41120,0.53303,-0.76611,0.01694,-0.19502,-0.65576,-0.22562,-0.09656,0.39205,-0.99491,0.37578,-0.31203,-0.53962
622,197,-0.17736,0.42715,-0.49120,0.19541,-0.96213,-0.47422,0.32566,-0.32188,-0.63488,-1.00597,-0.81433,0.82034,0.80582,-0.25188,0.52323,0.64133
623,199,1.09342,0.28822,-1.09683,0.24067,0.10197,-0.77945,-0.50049,-0.57119,-0.45319,-0.79331,-0.20564,0.07313,-0.02986,0.03249,-0.60444,-0.27015
624,199,-0.61320,-0.88782,0.64271,0.11002,-0.99436,-0.38986,-0.64081,-0.82105,-0.32447,-0.98964,0.22675,0.46718,-0.78418,0.28485,-0.47722,0.22745
625,199,0.22828,-0.24091,-0.16129,0.42776,0.19800,-0.82603,0.10479,-0.21102,-0.73605,0.38597,0.85631,0.56788,1.13035,-0.34467,-0.24731,-0.01773
626,199,0.31909,0.87519,-1.31872,0.65921,0.03097,-0.58583,0.18902,-0.61668,-0.78336,-0.14367,0.42548,0.48395,0.48895,-0.55792,-1.13487,-0.26193
627,199,0.50525,-0.60849,-0.58269,0.96252,-1.12343,-0.82176,0.54584,-0.02301,-0.51632,0.94007,0.20297,0.90277,1.10677,-0.72638,0.65393,-0.84600
628,199,-0.13341,0.10202,0.18529,-0.61132,-0.92279,0.36224,0.33421,0.05062,-0.65946,0.02165,-0.37148,0.63294,-0.12169,-0.25927,0.28762,0.08630
629,199,-0.78203,-0.87027,0.47737,0.26120,-0.63646,-1.11939,0.05458,-0.51356,-0.59755,-0.37399,-0.76381,0.95543,0.54205,-0.48078,0.59592,-0.03268
630,199,-0.78347,0.69988,-0.99831,0.79417,0.36875,-0.38023,0.68656,-0.60658,-0.94725,-0.85652,-1.02957,0.32194,0.22610,0.17815,-0.20057,0.12624
631,198,-0.00976,-0.96584,-0.83223,1.06220,-0.88883,-0.43786,0.34223,0.00833,-0.41255,0.47143,-1.16863,0.70743,-1.02469,-0.71580,-0.65232,0.15276
632,199,0.67455,-0.94677,0.00537,0.10469,0.76272,-0.87359,0.40544,-0.32264,-0.78577,0.60322,0.31193,0.60574,0.31008,-0.34534,-0.51861,-0.76244
633,199,1.05404,-0.64687,-0.12951,0.05134,0.00568,-0.14536,-0.49523,-0.26974,-1.08182,-0.22065,-0.26484,0.19725,-0.85311,0.17130,-0.27359,-0.50145
634,199,0.48966,-1.05140,-0.94801,0.60299,-0.22241,-0.86542,0.99957,-0.33819,-1.25110,-0.45229,-0.07351,0.09280,0.48825,0.11809,-0.08711,-0.63699
635,198,0.71424,-1.09255,-0.71132,-0.11192,-0.52488,-0.96123,-0.72073,-0.28201,-0.73727,0.51900,1.04594,0.62299,-0.43062,-0.54229,-1.01647,-0.66157
636,198,-0.42601,0.48199,-0.49773,0.03960,-1.09677,-1.01033,-0.98283,-0.48246,-0.17943,-0.39984,0.77733,0.75378,-0.15397,-0.23250,-0.93646,-0.35946
637,199,0.22894,0.27797,0.20601,-0.15015,0.05486,-0.42243,-0.76525,-0.06924,-0.33745,-0.28588,-0.24773,0.31794,0.47557,0.20183,-0.36762,0.06472
638,199,0.83734,-1.14085,0.31826,-0.16382,-0.77815,-0.64738,0.68550,-0.54159,-0.96477,-0.31820,0.42620,0.28806,-0.53278,0.19752,-0.96533,0.05804
639,199,-0.56486,-0.62182,0.23149,0.22454,-0.31671,0.06251,-0.26277,0.04893,-1.04743,-0.85868,-1.07434,0.47645,0.47747,-0.88343,-0.61772,-0.14232
640,199,-0.31018,-0.39244,-0.30571,-0.05478,-0.03816,-0.75897,0.85250,-0.22526,-0.99058,-0.67431,0.26131,0.31898,-0.50837,0.64609,-0.70795,-0.37756
641,199,-0.45179,-1.07479,-0.61800,0.39230,-0.63780,0.08473,0.46153,-0.22163,-1.02455,-0.63254,-0.84109,0.40585,0.47191,-0.74141,-0.16162,-0.15461
642,198,0.49016,0.33555,-0.83795,0.96931,-0.54799,-0.55153,-0.10577,-0.75647,-0.79987,-0.00848,-0.71583,1.11288,-0.29929,-0.47647,-0.13313,-0.34780
643,199,-0.64498,-0.49625,0.30537,-0.45586,-0.09217,-0.75720,0.23632,0.14661,-1.00447,-0.64166,-1.26039,0.52480,0.21950,0.22023,-0.04753,-0.28471
644,198,0.53949,-0.25555,-0.66725,0.64284,-0.46829,-0.03176,-0.83002,-0.69747,-0.78286,-0.62688,-0.55813,0.70637,-1.03258,-0.65180,0.56966,0.12597
645,199,0.25111,-0.12509,-0.60507,-0.94490,-0.52091,-1.05957,-0.87172,-0.83752,-1.03157,-0.43472,-0.36627,1.09378,0.86715,-0.04619,-0.46757,0.40157
646,199,0.17135,-0.52323,-0.13421,-0.15108,0.53765,-0.90203,0.04049,-0.58171,-0.78310,-0.74758,-0.39711,0.36851,-0.44418,-0.37135,-0.52171,-0.08735
647,199,0.83758,-0.69673,-1.29267,0.48376,-0.33893,0.14955,0.05402,-0.13470,-0.94489,0.14645,-0.24110,0.20866,-0.43942,-0.13976,-1.01287,-0.27430
648,199,0.79471,-1.04965,-0.20117,-0.32307,-0.91884,-0.06250,0.57309,-0.29797,-0.58109,-0.62770,-0.01489,0.51687,0.07368,-0.83094,-0.10224,0.12605
649,199,0.09343,0.58910,-0.63825,0.46634,-0.71444,-0.96619,-0.98081,-0.51109,-0.87325,-0.84903,-0.55671,0.09326,-0.29534,0.27101,0.20055,-1.25490
650,199,-0.60460,0.69581,-0.55633,-0.30070,0.00206,-0.94233,-0.98294,-0.54990,-1.01170,-0.78795,0.20413,1.12159,0.43443,0.31569,0.48312,-0.49550
651,199,0.24888,0.44197,0.82922,1.11875,-0.97564,-0.93846,0.96900,-1.15006,-0.72702,-0.06955,-0.50332,0.54853,0.52914,0.26327,-0.90006,-0.57543
652,200,0.66755,-0.84817,0.31984,-0.29889,-0.81554,-0.76530,-0.45854,-0.26786,-0.81083,-0.61492,-0.29873,1.04811,-0.16807,0.27327,-0.47201,-0.13120
653,199,0.67984,0.60525,-0.01645,-0.33038,-0.72681,-0.39727,0.06311,-0.67074,-0.99931,-0.81954,-0.69320,1.00170,-0.00972,-0.02580,-0.18666,0.11862
654,199,-0.88372,-1.34792,-0.27626,0.49737,-0.07672,-0.29843,-0.29290,-0.18817,-0.50651,0.58340,-0.78674,0.09620,0.93470,-0.18675,-1.00211,-0.20565
655,199,0.86343,-0.26666,-0.56992,-0.32671,-0.69796,-0.53295,-0.56408,-0.20949,-0.69360,0.25644,0.55763,0.93790,0.05005,-0.54500,0.60109,-0.39714
656,199,0.17246,-1.27629,0.51548,-0.50520,-0.29085,-0.85000,0.62418,-0.56632,-0.80364,0.24648,-0.91120,-0.00580,0.62168,0.53090,-0.76784,0.01727
657,199,-0.09984,-0.44148,0.52096,0.66647,-0.04224,-0.40473,0.25545,-0.12709,-0.86565,-0.85773,0.76429,0.66122,-0.73499,-0.57494,-0.24557,-0.19826
658,199,-0.75011,-0.87672,-0.94820,0.29700,-0.93501,-0.96169,-0.72045,-0.66828,-1.01355,-0.32850,-0.98537,0.64010,-0.48602,0.32151,0.68547,0.28007
659,199,0.53630,-0.24533,-0.55150,0.11939,-0.34890,-0.67817,0.90687,-0.23384,-0.65908,-0.68212,-0.85522,0.31081,-0.82920,-0.30995,-0.78435,0.19500
660,199,0.50022,-0.28511,-0.84932,1.03909,-0.68735,-0.27604,0.83842,-0.76990,-1.11058,0.26243,-0.34161,0.65901,0.38266,0.82781,-0.22882,0.34942
661,198,-0.56556,0.14170,-0.13924,0.75858,-0.39098,-0.91100,-0.51862,-1.05834,-0.25955,-0.21823,-0.73005,0.45196,-0.22667,0.21195,0.68462,0.00012
662,199,0.72158,-0.90542,-0.68600,1.06844,-0.45820,-0.67380,-0.75741,-0.55945,-0.61046,-0.51987,-0.73801,0.88235,-0.80978,-0.43128,0.38424,-0.40266
663,199,0.05386,0.07219,-0.18173,-0.14372,-0.35492,-0.93497,-0.45873,-0.06561,-0.73226,-0.68601,-0.47630,0.78200,-1.06318,-0.35139,-0.60613,-0.52278
664,199,0.19858,-0.96538,0.28689,0.90557,-1.01817,-0.25101,0.21794,-0.49592,-0.86077,-0.75294,-0.26477,0.35393,-0.32515,-1.07869,-0.44622,-0.81200
665,199,0.57503,-0.18666,-0.23078,0.14374,-0.71166,-0.20893,-0.92634,-0.15027,-0.80934,-0.10423,-0.23786,0.87990,0.47722,-0.51936,-0.72082,-0.23093
666,199,0.45143,-0.94702,0.50564,0.64170,0.03814,-0.26434,-0.05882,-0.00864,-1.09318,-0.52944,0.47594,0.95571,-0.95326,-0.86107,0.72882,-0.76834
667,199,-0.31182,-0.80308,-0.22620,0.92518,-0.71292,-0.23560,0.86630,-0.43685,-0.98688,-0.27701,-0.27418,0.47658,-0.15632,0.03932,0.30377,-0.73807
668,198,-0.50485,-0.22280,-0.40732,0.26457,0.40317,-0.41313,0.67295,-0.37562,-0.97675,0.10473,0.74456,1.03661,0.43080,-0.72145,0.24560,-0.04930
669,199,0.48431,1.05982,-0.13425,-0.08912,-0.87494,-0.53648,-0.02511,-0.61916,-0.50745,-0.71508,-0.10018,0.87190,-0.64784,0.22532,-0.48733,-0.84683
670,199,0.73912,-0.80174,-0.21904,0.52769,-0.59798,0.34313,0.74685,-0.16103,-0.92721,-0.60553,-0.45051,0.07736,-0.14230,-0.08830,0.40256,-0.67751
671,199,-0.82501,-0.68793,0.84429,-0.50365,-0.30068,-0.49199,0.69498,0.01073,-0.93744,-0.56955,0.47032,0.75954,-0.41342,0.32358,-0.34964,-0.24352
672,198,-0.11011,-0.35559,0.43527,0.22748,-0.97140,-0.79026,0.21433,0.01542,-0.60507,-0.58466,-0.16018,0.90456,-0.13372,-0.15544,-0.99843,0.33166
673,199,-0.82374,0.17151,-0.45305,0.19271,-1.08191,-0.32668,-0.44828,0.09312,-0.73630,-0.56509,-0.90640,-0.02780,-0.12353,0.00690,-0.61920,-0.53920
674,199,0.09460,0.25700,0.15103,0.44873,-0.31188,-0.72759,-0.74382,-0.48702,-0.88340,-0.62077,0.27805,0.98791,-0.03258,-0.48472,-0.51783,0.10584
675,199,-0.07574,0.40013,-0.86833,0.06019,-0.31696,-0.65232,0.67181,-0.86181,-1.04811,-0.90533,-0.94494,0.59703,0.39081,-0.10213,0.07518,0.09072
676,199,0.01431,-0.05999,-0.68147,0.70198,0.24950,-0.41750,0.39334,-0.73938,-0.91936,-0.73607,-0.77106,0.77403,-0.93954,-0.07855,0.44319,-0.17360
677,198,-0.17392,-0.86647,0.98353,-0.88200,-0.99282,-1.30710,0.79029,-0.65505,-1.09573,-0.82359,-0.69572,-0.10892,0.57471,0.76749,-1.17973,-0.65399
678,199,-0.26737,-1.31886,-0.90732,-0.07840,-0.60455,-0.71127,-0.86802,-0.02590,-0.81736,0.24401,-0.17933,0.32849,0.94976,-0.20269,0.28890,-0.41327
679,199,-0.63032,-1.05058,-0.74010,0.35836,-0.80836,-0.31100,0.06203,-0.00851,-0.74928,-0.17465,-0.38287,0.26645,-0.33370,-0.80731,-0.63035,-0.38240
680,199,-0.47132,-0.53939,0.51171,-0.31715,-0.20270,-0.67100,0.01320,-0.32210,-0.70076,0.41984,-0.25611,0.51030,-0.63784,0.28597,0.35555,-0.29267
681,199,-0.15332,-0.72015,0.34870,0.81358,-0.26505,-0.98537,0.94986,-0.64867,-0.82092,-0.96683,-0.14700,0.74084,0.56387,0.18655,0.08147,-0.72902
682,199,0.77328,-0.73393,0.22470,-0.04503,-0.34193,-1.09859,-0.46689,-0.88720,-1.28519,-0.70621,-0.86090,0.08221,-0.41854,0.58371,-0.78215,-0.62288
683,199,0.22359,-0.39430,-0.76754,0.14281,0.09159,-0.12356,0.61767,-0.54050,-0.83703,-0.66588,-0.29656,-0.12903,0.78192,0.13102,1.01138,-0.31412
684,199,-0.44740,-1.20559,-0.77561,0.34512,-0.43144,-0.68189,-0.50554,-0.00163,-0.88990,-0.44642,-0.79816,0.88016,1.29547,-0.69302,-0.93283,-0.38441
