Run,Score,w1,w2,w3,w4,w5,w6,w7,w8,w9,w10,w11,w12,w13,w14,w15,w16
1,199,-0.56307,-0.58631,-0.85366,0.06246,-0.11593,-0.69563,-0.35525,-0.74294,-0.84987,-1.05503,-0.93014,0.64949,0.83364,0.25688,-0.21723,-0.04560
2,199,0.42500,0.39275,-0.67400,0.95678,-0.94205,-0.53572,-0.53007,-0.42730,-0.55506,-0.94775,-0.47874,0.88900,-0.01322,-0.54649,-0.42809,-0.58979
3,198,0.11760,-0.69839,-0.22953,0.36933,-0.17214,-0.31411,-0.14729,-0.99205,-0.59921,0.94803,-0.25292,0.40554,-0.63068,0.34686,0.10648,0.03760
4,197,-0.35954,-0.54057,-0.68238,0.48434,-0.06464,-0.67114,-0.80559,-0.66345,-0.80393,-0.50492,-0.16229,0.31965,0.57316,-0.57191,-0.22346,-1.10740
5,199,0.74665,1.00879,-0.75453,0.77159,-0.44440,-0.53638,0.11000,-0.56501,-0.77295,-0.56796,-0.61135,0.59963,-0.57886,0.10605,-0.37434,0.05258
6,198,-0.60937,-0.00093,-0.79030,0.11576,-0.98681,0.32659,1.11738,0.14896,-0.48114,0.21252,-0.17689,0.78991,0.26588,-0.92071,-0.47850,0.00556
7,199,0.57489,-0.78421,-0.06382,0.81717,-1.07570,-0.40981,-0.23645,-0.13250,-0.18077,-0.45883,-0.66217,0.10217,0.50677,-0.28322,0.35512,-0.52949
8,199,-0.51199,-0.87323,0.79725,0.85427,-0.90090,-0.77347,-1.30219,-0.25508,-0.96320,-0.44499,-0.66741,0.92195,0.14669,-0.28446,0.06177,-0.04352
9,199,-0.35616,-0.82260,0.69868,0.77698,-0.16228,0.19751,0.31845,-0.29470,-1.29269,-0.26473,-0.27151,1.11109,0.02898,-0.71452,-0.73624,0.18162
10,199,-0.43724,-0.68612,-0.68638,-0.23737,-0.88707,0.52413,-0.39351,-0.06530,-0.99402,-0.26589,0.12386,0.29116,0.31681,0.00956,-0.73894,-0.12114
11,199,0.16216,-0.48482,-0.77137,0.78250,-0.39129,0.53349,-0.96913,-1.03158,-1.02152,-1.01796,0.52187,0.66442,0.12353,-0.25740,-1.13450,0.26000
12,199,-0.57862,-1.02117,0.21080,0.55298,-0.61849,-0.73453,-0.04532,-0.68246,-0.84398,0.22254,0.61857,0.36925,-0.33410,0.23966,-0.85232,0.06527
13,199,-0.48515,0.63165,-0.43906,0.15004,-0.44595,-0.82983,0.68823,-0.46435,-0.96967,-0.97376,-0.46096,0.42958,0.41021,0.31542,0.79211,-0.39275
14,199,-0.23890,-0.54715,1.00410,0.67225,0.19983,-0.52741,-0.50616,-0.07007,-0.88892,-0.64764,-0.79083,0.78660,0.40118,-0.45290,-0.83717,-0.51163
15,199,0.41677,0.60500,-0.04882,0.78718,-0.78952,0.10187,-0.50404,-0.53761,-1.00226,-0.80453,0.28686,0.98977,0.88453,-0.41392,0.20014,-0.39312
16,199,-0.37368,0.61942,-0.03799,-0.35645,0.07041,-0.42342,0.59247,-0.62681,-1.17118,-0.20441,-0.62799,1.07941,0.30660,0.36640,0.56092,0.28485
17,199,0.45891,0.85971,-0.51607,0.32218,-0.08123,-0.82869,0.40082,-0.13998,-1.12868,-0.94203,0.65796,0.58782,0.36219,0.15920,-0.57575,-0.07565
18,199,0.78490,-0.20235,-0.51626,0.41057,-0.85031,-0.06889,-0.40855,-0.49867,-0.44711,0.05864,-0.71476,0.64258,0.58399,-0.66895,-0.21862,0.14650
19,199,0.57860,-0.61894,-0.76837,-0.56781,-0.31440,-0.72523,-0.43290,-0.21241,-0.67395,-0.35558,-0.56020,0.57451,0.03677,-0.01666,0.89896,0.06085
20,199,0.24151,-0.65856,-0.42992,-0.56301,0.56841,-0.55624,0.34472,-0.39428,-0.73529,-0.54968,-0.80691,0.17056,-0.50159,0.32483,0.39597,0.35337
21,199,-0.77024,-0.15866,-0.96511,0.69168,-0.93161,0.32020,-0.55606,-0.76154,-1.32746,-0.67287,-0.57774,0.56519,0.89417,-0.21717,0.28391,-0.95698
22,199,-1.10156,0.89574,0.19218,0.89355,-0.17232,-0.75852,0.68835,-0.63572,-0.82569,-0.52127,-0.88829,0.91473,-0.29661,-0.32622,-0.23486,-0.20651
23,199,0.01647,-0.49539,-0.54351,-0.78245,0.25904,-1.03305,0.18149,-0.66362,-0.60136,-0.66353,0.41464,0.99594,-0.70471,-0.70687,-0.08512,0.52358
24,199,-0.39046,-0.24949,-0.89974,0.29532,-0.33973,-1.04549,0.15531,-0.56716,-1.14596,-0.31004,-0.91108,1.13942,0.31867,-0.62697,-1.53847,-0.57367
25,198,0.31239,-0.37286,0.28708,0.62985,-0.27307,-0.05425,-0.18962,-0.42327,-0.56194,-0.61461,0.41317,0.43140,0.14786,0.23060,0.05884,0.22230
26,198,1.00460,0.89078,0.70941,-0.35431,-0.51770,0.08511,-0.06052,-0.66417,-1.10399,-0.46636,0.26562,0.67303,0.16238,0.02630,-0.95059,-0.08123
27,199,0.29109,-0.05113,-0.08793,-0.52424,-0.74364,-0.09312,-0.14764,-0.30811,-0.54658,-0.64699,0.08110,0.09819,1.08565,-0.04384,-0.32247,-0.06964
28,199,-0.41568,-0.46440,-0.14072,0.26836,-0.32533,-1.07924,-0.54785,0.08820,-0.58999,0.32482,-0.49883,0.44633,-0.33588,-0.51413,-0.31705,-0.12014
29,199,-0.84124,-0.92092,0.43670,0.41964,-0.34100,-0.79715,0.20573,0.01093,-0.86161,-0.07867,0.79777,0.61176,0.35108,-0.60906,-0.24580,-0.69179
30,199,1.06007,0.14675,0.22950,-0.53249,-0.98931,0.33782,0.93722,-0.06475,-0.60730,-0.73238,-0.62512,0.07519,0.46442,-0.25314,0.67576,-0.70502
31,199,0.08111,0.64319,-0.65316,-0.08155,-0.62910,-0.67851,-0.42308,-0.44910,-1.05166,-0.75215,0.05400,0.85421,0.81916,0.48782,-0.51646,-0.06813
32,199,-0.52616,0.88361,0.47639,0.19225,-0.42262,0.09849,-0.51572,-0.42887,-1.13119,-0.20633,-0.31445,1.04356,0.80254,0.10185,0.12510,0.01226
33,199,0.74162,-0.82940,0.95235,0.67942,-0.59300,-0.40541,-0.20310,-0.55020,-0.42152,-0.68644,0.36382,0.28015,-0.88535,-0.26431,-0.68859,-0.39030
34,199,0.78068,-0.36131,-0.65668,0.26833,-0.53101,-1.08030,-1.19596,-0.49918,-1.11342,-0.92753,0.79685,0.44579,-0.45116,0.40167,-0.35681,-0.18632
35,199,-1.26754,-0.91098,-0.52418,0.18474,-0.67817,-0.62295,-0.10817,-0.81847,-0.94073,-0.51793,-0.43604,-0.17347,0.37226,0.42362,-0.84161,-0.19774
36,199,0.68026,-0.28638,0.28613,0.56362,-0.19428,-0.88804,-0.78982,-0.82712,-0.77392,-0.61003,-0.30125,0.85277,-0.31662,-0.93780,-0.30817,-0.03777
37,199,0.03894,-0.30355,-0.70159,0.39928,-0.23753,-1.08722,0.15672,-0.29496,-0.79207,0.33226,-0.07285,0.73887,-0.71595,-0.30937,0.99856,-0.13916
38,198,-0.15001,-0.89039,-0.77130,0.92975,-0.73881,0.37689,0.69644,-0.62583,-0.76709,-0.47001,-0.01703,0.74222,-0.60656,-0.68515,0.39286,-0.30541
39,198,0.60303,-0.01009,-0.85521,0.14867,-0.68747,-0.49703,0.06625,-0.79997,-0.73962,-0.03457,0.76610,0.93404,-0.49328,0.06909,-0.82081,0.14482
40,199,-0.88244,-0.11228,-0.60342,0.19533,-0.31980,-0.80148,0.37991,-0.01164,-1.03138,-0.33818,-0.62655,-0.03555,-0.31879,0.49167,-0.25010,-0.49812
41,199,0.70521,-0.29064,0.00246,-0.17956,-0.82412,0.45522,0.83964,-0.79738,-0.73094,-0.81222,0.35117,0.47873,-0.28457,0.12480,0.20744,0.12801
42,199,0.19285,0.64734,-0.52760,-0.16424,0.02185,-0.41501,0.12370,-0.29029,-0.54814,-0.28709,-0.71289,0.27197,-0.73198,0.04227,-0.88969,-0.24086
43,199,-0.15378,0.23368,-0.24313,-0.36846,-0.31795,-0.12410,-0.06113,0.01406,-0.44846,0.10806,0.56545,0.65651,0.82531,0.03387,-0.53275,-0.04617
44,199,-0.92061,0.01865,0.91772,0.45401,0.12578,-0.86970,-0.33816,-0.10464,-0.96781,-0.45333,-1.11111,0.87257,-0.07585,-0.00745,-0.33810,-0.11380
45,199,-0.02641,0.20004,-0.99645,-0.02714,-1.30167,0.07827,0.51173,-0.37768,-0.41255,-0.03900,-0.61962,0.13332,0.75093,-0.13718,-0.81615,0.18552
46,199,-0.70235,-0.33239,0.54128,0.96788,-0.00354,-0.30569,-0.40953,-0.28047,-0.51283,-0.74640,-0.78425,0.93756,-0.03528,-0.32060,-0.77202,0.06963
47,199,-0.42267,-0.56806,-0.24437,0.13306,-0.56004,-0.89004,-0.54803,-0.63381,-1.11412,0.48702,-0.45848,0.02235,0.60583,1.05790,-0.29703,-0.24836
48,199,-1.04071,0.60790,1.04148,0.60018,0.03149,-0.93695,0.42166,-0.39603,-0.98042,-0.75616,0.85977,0.40312,-0.38705,0.49174,-0.96619,-0.11353
49,199,0.67049,0.65980,0.58433,0.74216,-0.10120,-0.78934,0.05372,-0.66150,-0.61082,-0.29768,0.35598,1.03651,-0.74525,0.25256,1.28251,-0.72286
50,199,0.85978,-0.69942,0.58713,0.49642,-0.23598,0.19952,-0.12057,-0.15545,-1.01246,-0.79174,0.57239,0.61319,-0.69751,-0.23629,-0.86331,-0.34522
51,199,0.33964,0.92854,-0.17848,-0.95316,-0.52882,-1.05590,-0.12878,0.24357,-0.80219,-1.14199,-0.81478,0.89239,0.09433,-0.84065,-0.61040,-0.24159
52,199,0.61864,-0.59123,0.08577,0.56786,-0.29216,-0.30906,-0.46770,-0.80329,-0.68759,-0.81578,-0.19833,0.28794,-0.45125,-0.32820,-0.37993,0.14939
53,199,-0.27363,-0.82283,0.45022,0.70746,-0.60390,-1.10595,0.73321,-0.35452,-1.07490,0.45131,-0.38251,0.10950,0.51660,0.50078,-0.58401,-0.89595
54,198,0.21239,0.35551,-1.03699,-0.09446,0.05916,-0.40427,0.11261,-0.94519,-0.95274,-0.27929,-0.53173,0.61372,0.81956,-0.36643,-0.40029,0.43285
55,198,0.69822,-0.45062,-0.47803,-1.01521,-1.22958,-0.54101,0.44835,-0.89946,-0.93010,-0.03466,-0.17481,1.12657,0.29645,-0.28465,0.94331,0.58468
56,199,-0.57278,1.17489,-0.52715,0.36044,-1.21391,-0.78643,0.80409,-0.31273,-0.74868,-0.72509,-0.01568,0.93264,0.58223,-0.33854,-0.84994,-0.15086
57,199,0.19582,-0.52748,0.26929,-0.06089,-0.00225,0.11453,-0.13029,-0.60834,-1.10689,0.63329,-0.65899,0.92775,0.71636,0.47202,0.12064,-0.80465
58,199,-0.43544,0.65426,-0.45465,0.92752,-0.72547,-0.03505,-0.85784,-0.76513,-0.99229,-0.67024,-1.10102,0.94050,-0.44173,-0.96500,0.06871,-0.49307
59,199,-0.93944,0.62824,-0.43670,0.40442,-0.44215,-0.52512,-0.07065,-0.33358,-0.86827,-1.10300,-0.92038,0.48948,-0.42092,-0.05224,0.85829,0.25523
60,199,-0.71642,-0.36527,0.63449,0.29216,-0.26710,-0.25573,0.33015,0.06912,-0.99170,0.73859,-0.70875,0.38291,0.57855,-0.08615,0.24332,-1.09200
61,198,0.10567,-0.02038,-0.06746,0.75061,-0.39222,-0.58053,-0.80724,-0.10568,-0.75116,-1.02811,0.45358,0.61644,0.75730,-0.32167,-0.25793,-0.66059
62,199,-0.08757,0.63784,0.34776,-0.77008,-0.33401,0.88185,0.72420,-0.29384,-1.23035,-0.64846,-0.09730,-0.00372,-0.04925,0.46171,-0.42213,-0.33364
63,198,0.55343,0.60908,-0.18910,1.03151,-0.13754,-0.97935,0.31842,-0.45263,-1.01704,-0.85742,0.01632,1.07833,0.69094,-0.36743,-0.67471,-0.44684
64,196,-0.58668,-0.23639,0.69854,-0.22215,-0.39772,-0.53794,-0.50999,0.00713,0.05613,-0.30805,0.48837,0.87421,0.45264,-0.53067,0.89746,-0.52750
65,199,1.03989,-0.36320,-0.52835,-0.78886,-0.91064,-0.83697,-1.01731,-0.22774,-0.82388,0.33015,-0.86181,1.11162,0.95457,0.09945,-0.36660,-0.34684
66,199,1.08525,-0.40252,-0.51025,0.35791,-0.14536,-0.11195,0.39884,-0.52651,-0.58962,0.71808,0.88138,0.90836,0.17239,-0.45554,0.21119,-0.21607
67,199,-0.49476,-0.08760,0.52148,0.26349,0.31268,-0.50935,0.57825,-0.01372,-1.10208,-0.27216,-0.75783,0.38203,0.65317,-0.21601,0.32122,-0.84452
68,199,-0.97470,0.23735,0.48679,-0.28126,-0.36797,-0.36264,0.14663,0.24627,-0.95179,-0.80835,-0.41449,1.18936,-0.38190,-0.69979,-0.32193,-0.40712
69,199,-0.70600,-0.66416,0.50232,-0.16497,-0.92259,-0.77989,-0.46335,-0.99861,-1.22773,-0.79670,-0.83493,0.98303,-0.50774,-0.84394,-1.00511,0.09216
70,199,0.70793,-0.48950,-0.73716,-0.19789,-0.53101,-1.05185,-1.03348,-0.88758,-0.55736,-1.62888,-0.02929,0.45262,0.28489,-0.57855,-0.08216,0.34245
71,198,-0.65705,-1.11884,0.16919,0.70329,0.02344,0.13445,-0.40642,-0.07564,-0.64728,-0.15052,0.83834,0.94895,-0.26673,-0.27526,-0.32371,-0.22867
72,198,-0.65654,0.11563,-0.72495,0.51684,-0.68881,-0.28924,1.01545,0.24497,-0.67167,-0.78384,-0.58841,0.81657,0.78924,-0.99703,0.78280,-0.42740
73,199,-0.27050,-0.08307,0.03901,0.05296,-0.56352,-0.81894,0.20288,-0.13095,-1.33755,0.54974,-0.27699,0.84007,0.39751,0.14372,-0.03389,-0.16361
74,199,-0.05870,-0.73861,-0.20128,-0.98948,-0.52167,0.37467,-0.56988,-0.10833,-0.95280,-0.94941,0.45367,0.89828,-0.90162,-0.15540,-0.30615,0.24485
75,199,-0.73477,0.31923,-0.91442,0.76947,-0.93711,-0.38082,-0.72768,-0.47125,-0.21454,-0.09046,-0.88528,0.19495,0.88920,0.10183,-0.98833,-0.45521
76,199,0.74630,0.02677,0.67992,0.59462,-0.92237,0.09347,-0.29541,-0.22462,-0.79078,-0.78286,-0.90522,-0.04119,0.47088,-0.19758,-0.23420,-0.38431
77,199,-0.62970,-0.65526,-0.12671,0.05717,-0.81751,-0.73004,0.54874,-0.13633,-0.98335,0.15381,-0.12475,0.23490,-0.27240,0.36741,-0.00692,-0.70577
78,199,0.38429,-1.21934,-0.58585,0.00772,-0.07667,-0.71601,-0.56059,-0.43068,-0.33781,-0.19881,-0.58698,0.30841,-0.33234,-0.03929,-0.31872,0.12392
79,199,-0.57772,-0.19125,0.22301,1.16176,-0.85607,0.37909,-0.27923,-0.16616,-1.04615,0.14573,-0.41169,0.39723,0.81770,-0.24734,-0.89459,-0.74579
80,199,0.73560,-1.01678,-0.08422,0.15526,-0.35911,0.02481,0.09440,-0.24299,-0.89168,0.31264,0.27258,0.18643,0.58490,-0.08607,-1.11817,-0.10454
81,199,0.15717,0.38560,-0.46257,0.75877,-0.40966,-0.78024,0.56768,-0.68446,-0.84919,0.11889,0.68668,0.69783,-0.46560,0.21572,-0.90001,-0.29148
82,199,0.74609,-0.78422,-0.57923,0.40876,-0.51422,-0.74475,0.78442,-0.49170,-1.06993,0.06262,0.85807,0.63192,-0.54082,0.16908,-0.18393,-0.66165
83,199,0.16112,0.27948,-0.60760,-0.26923,0.46674,-0.64572,-1.04692,0.11183,-0.93453,0.51446,-1.19175,0.33556,0.50231,-0.18367,-0.41407,-0.19803
84,199,-0.40918,-1.01494,0.52269,-0.70286,0.13264,-0.96788,0.86407,-0.10636,-0.87898,-1.20528,-0.65284,-0.05552,0.95876,0.37230,0.60322,-0.60185
85,199,-0.18432,-0.96246,-0.07431,0.98458,-0.61790,-0.79647,-0.19725,-0.16531,-0.85503,0.78033,-0.62429,0.37938,-0.72846,-0.14432,0.14804,-0.77061
86,199,-0.64063,0.02590,-0.33703,-0.83175,-0.11930,-0.64588,1.13913,0.13414,-0.90160,-0.95102,-0.51246,0.30967,0.43671,-0.41595,-0.55141,0.02615
87,199,-0.24882,-1.02668,-0.57802,0.32717,0.92723,-0.64268,0.09060,-0.28577,-1.18271,-0.81619,-0.66413,0.43076,0.55821,-0.66192,0.10703,-0.00606
88,198,0.27050,0.06438,0.30105,-0.35351,0.02824,-0.38866,0.15795,-0.83356,-0.83199,-0.44758,-0.54798,0.73691,-0.53093,-0.24458,-0.93246,-0.16418
89,199,-0.06790,-0.40787,0.26654,-0.24435,0.17522,-0.44803,-0.34971,0.19907,-1.08381,-0.20261,-0.96450,0.71880,-0.22369,-0.73353,-0.37458,-0.52682
90,199,1.00556,0.49388,-0.22402,1.03276,0.29798,-0.86288,-0.27473,-1.11367,-0.88127,-0.81650,0.62688,0.32188,-0.16017,-0.21545,-0.29148,-0.62254
91,199,0.72375,-0.73200,0.14037,-0.19490,-0.37175,0.03662,-0.41750,-0.29726,-1.17154,0.64639,-0.75997,0.38144,-0.00983,0.43969,-0.90437,-0.17133
92,199,-0.35612,-1.02470,-0.73651,-0.12042,-0.50776,-0.74136,0.84433,-0.02175,-0.72419,-0.69332,-0.90834,0.97019,0.62137,-0.14367,0.98367,0.11004
93,199,0.12522,-0.08469,-0.48081,0.71003,0.20846,-0.85802,-0.09229,-0.23794,-0.89295,0.42012,0.20238,0.47341,-0.06453,-0.15788,-1.23422,0.25484
94,197,-0.71349,0.06444,-0.33007,0.02647,0.11812,-0.76739,-0.56612,-0.76443,-0.38298,-0.75794,0.48696,0.85520,-0.08389,-0.50283,-0.70905,0.47434
95,197,-0.08038,-0.31239,-0.11838,0.76170,-1.04674,-0.55489,-0.72680,-1.10443,-0.34594,-0.73931,0.41900,0.73210,-0.40510,-0.82527,-0.07333,0.83556
96,199,-0.11069,0.95829,-0.71866,0.53350,-0.05195,-0.83977,-0.50092,-0.32880,-1.22853,0.78232,0.55403,1.10027,-0.00757,-0.28767,-0.46826,-0.51300
97,199,0.25907,0.18977,0.46840,-0.17675,-0.21181,-0.45535,-0.22462,0.02239,-1.00278,-1.04861,-0.79139,0.57890,0.43982,-0.64464,0.66469,-0.33889
98,199,-0.65325,-0.27068,0.35253,0.63242,-0.91039,-1.05458,0.43916,-0.51690,-0.80626,-0.64072,-0.42761,0.68652,-1.06073,-0.65092,0.82329,-0.27361
99,199,-0.61307,-0.36021,-0.59091,0.48206,-0.55526,-0.95352,-0.83755,-0.47751,-0.75656,-0.74998,-0.25729,0.25869,0.76020,-0.40964,-0.57758,-0.98331
100,199,-0.17747,-0.56463,0.05116,1.06136,-0.42853,-0.33159,0.61587,-0.22989,-1.00068,-0.48141,-0.44871,0.46875,0.89832,-0.07276,0.94481,-0.47809
